{"learner":{"attributes":{"scikit_learn":"{\"_estimator_type\": \"regressor\"}"},"feature_names":["superficie_construida_m2","numero_dormitorios","numero_banos","planta_num","es_exterior_piso","tiene_ascensor_piso","tiene_garaje","obra_nueva","distancia_min_playa_km","distancia_min_supermercado_km","distancia_min_colegio_km","interaccion_planta_sin_ascensor_piso","distancia_centro_municipio_km","score_cercania_servicios","tipologia_unificada_piso","tipologia_unificada_unifamiliar","municipio_Camargo","municipio_Castro-Urdiales","municipio_El Astillero","municipio_Piélagos","municipio_Santander","municipio_Torrelavega","municipio_otro"],"feature_types":["float","float","float","float","float","float","float","float","float","float","float","float","float","float","float","float","float","float","float","float","float","float","float"],"gradient_booster":{"model":{"gbtree_model_param":{"num_parallel_tree":"1","num_trees":"1014"},"iteration_indptr":[0,1,2,3,4,5,6,7,8,9,10,11,12,13,14,15,16,17,18,19,20,21,22,23,24,25,26,27,28,29,30,31,32,33,34,35,36,37,38,39,40,41,42,43,44,45,46,47,48,49,50,51,52,53,54,55,56,57,58,59,60,61,62,63,64,65,66,67,68,69,70,71,72,73,74,75,76,77,78,79,80,81,82,83,84,85,86,87,88,89,90,91,92,93,94,95,96,97,98,99,100,101,102,103,104,105,106,107,108,109,110,111,112,113,114,115,116,117,118,119,120,121,122,123,124,125,126,127,128,129,130,131,132,133,134,135,136,137,138,139,140,141,142,143,144,145,146,147,148,149,150,151,152,153,154,155,156,157,158,159,160,161,162,163,164,165,166,167,168,169,170,171,172,173,174,175,176,177,178,179,180,181,182,183,184,185,186,187,188,189,190,191,192,193,194,195,196,197,198,199,200,201,202,203,204,205,206,207,208,209,210,211,212,213,214,215,216,217,218,219,220,221,222,223,224,225,226,227,228,229,230,231,232,233,234,235,236,237,238,239,240,241,242,243,244,245,246,247,248,249,250,251,252,253,254,255,256,257,258,259,260,261,262,263,264,265,266,267,268,269,270,271,272,273,274,275,276,277,278,279,280,281,282,283,284,285,286,287,288,289,290,291,292,293,294,295,296,297,298,299,300,301,302,303,304,305,306,307,308,309,310,311,312,313,314,315,316,317,318,319,320,321,322,323,324,325,326,327,328,329,330,331,332,333,334,335,336,337,338,339,340,341,342,343,344,345,346,347,348,349,350,351,352,353,354,355,356,357,358,359,360,361,362,363,364,365,366,367,368,369,370,371,372,373,374,375,376,377,378,379,380,381,382,383,384,385,386,387,388,389,390,391,392,393,394,395,396,397,398,399,400,401,402,403,404,405,406,407,408,409,410,411,412,413,414,415,416,417,418,419,420,421,422,423,424,425,426,427,428,429,430,431,432,433,434,435,436,437,438,439,440,441,442,443,444,445,446,447,448,449,450,451,452,453,454,455,456,457,458,459,460,461,462,463,464,465,466,467,468,469,470,471,472,473,474,475,476,477,478,479,480,481,482,483,484,485,486,487,488,489,490,491,492,493,494,495,496,497,498,499,500,501,502,503,504,505,506,507,508,509,510,511,512,513,514,515,516,517,518,519,520,521,522,523,524,525,526,527,528,529,530,531,532,533,534,535,536,537,538,539,540,541,542,543,544,545,546,547,548,549,550,551,552,553,554,555,556,557,558,559,560,561,562,563,564,565,566,567,568,569,570,571,572,573,574,575,576,577,578,579,580,581,582,583,584,585,586,587,588,589,590,591,592,593,594,595,596,597,598,599,600,601,602,603,604,605,606,607,608,609,610,611,612,613,614,615,616,617,618,619,620,621,622,623,624,625,626,627,628,629,630,631,632,633,634,635,636,637,638,639,640,641,642,643,644,645,646,647,648,649,650,651,652,653,654,655,656,657,658,659,660,661,662,663,664,665,666,667,668,669,670,671,672,673,674,675,676,677,678,679,680,681,682,683,684,685,686,687,688,689,690,691,692,693,694,695,696,697,698,699,700,701,702,703,704,705,706,707,708,709,710,711,712,713,714,715,716,717,718,719,720,721,722,723,724,725,726,727,728,729,730,731,732,733,734,735,736,737,738,739,740,741,742,743,744,745,746,747,748,749,750,751,752,753,754,755,756,757,758,759,760,761,762,763,764,765,766,767,768,769,770,771,772,773,774,775,776,777,778,779,780,781,782,783,784,785,786,787,788,789,790,791,792,793,794,795,796,797,798,799,800,801,802,803,804,805,806,807,808,809,810,811,812,813,814,815,816,817,818,819,820,821,822,823,824,825,826,827,828,829,830,831,832,833,834,835,836,837,838,839,840,841,842,843,844,845,846,847,848,849,850,851,852,853,854,855,856,857,858,859,860,861,862,863,864,865,866,867,868,869,870,871,872,873,874,875,876,877,878,879,880,881,882,883,884,885,886,887,888,889,890,891,892,893,894,895,896,897,898,899,900,901,902,903,904,905,906,907,908,909,910,911,912,913,914,915,916,917,918,919,920,921,922,923,924,925,926,927,928,929,930,931,932,933,934,935,936,937,938,939,940,941,942,943,944,945,946,947,948,949,950,951,952,953,954,955,956,957,958,959,960,961,962,963,964,965,966,967,968,969,970,971,972,973,974,975,976,977,978,979,980,981,982,983,984,985,986,987,988,989,990,991,992,993,994,995,996,997,998,999,1000,1001,1002,1003,1004,1005,1006,1007,1008,1009,1010,1011,1012,1013,1014],"tree_info":[0,0,0,0,0,0,0,0,0,0,0,0,0,0,0,0,0,0,0,0,0,0,0,0,0,0,0,0,0,0,0,0,0,0,0,0,0,0,0,0,0,0,0,0,0,0,0,0,0,0,0,0,0,0,0,0,0,0,0,0,0,0,0,0,0,0,0,0,0,0,0,0,0,0,0,0,0,0,0,0,0,0,0,0,0,0,0,0,0,0,0,0,0,0,0,0,0,0,0,0,0,0,0,0,0,0,0,0,0,0,0,0,0,0,0,0,0,0,0,0,0,0,0,0,0,0,0,0,0,0,0,0,0,0,0,0,0,0,0,0,0,0,0,0,0,0,0,0,0,0,0,0,0,0,0,0,0,0,0,0,0,0,0,0,0,0,0,0,0,0,0,0,0,0,0,0,0,0,0,0,0,0,0,0,0,0,0,0,0,0,0,0,0,0,0,0,0,0,0,0,0,0,0,0,0,0,0,0,0,0,0,0,0,0,0,0,0,0,0,0,0,0,0,0,0,0,0,0,0,0,0,0,0,0,0,0,0,0,0,0,0,0,0,0,0,0,0,0,0,0,0,0,0,0,0,0,0,0,0,0,0,0,0,0,0,0,0,0,0,0,0,0,0,0,0,0,0,0,0,0,0,0,0,0,0,0,0,0,0,0,0,0,0,0,0,0,0,0,0,0,0,0,0,0,0,0,0,0,0,0,0,0,0,0,0,0,0,0,0,0,0,0,0,0,0,0,0,0,0,0,0,0,0,0,0,0,0,0,0,0,0,0,0,0,0,0,0,0,0,0,0,0,0,0,0,0,0,0,0,0,0,0,0,0,0,0,0,0,0,0,0,0,0,0,0,0,0,0,0,0,0,0,0,0,0,0,0,0,0,0,0,0,0,0,0,0,0,0,0,0,0,0,0,0,0,0,0,0,0,0,0,0,0,0,0,0,0,0,0,0,0,0,0,0,0,0,0,0,0,0,0,0,0,0,0,0,0,0,0,0,0,0,0,0,0,0,0,0,0,0,0,0,0,0,0,0,0,0,0,0,0,0,0,0,0,0,0,0,0,0,0,0,0,0,0,0,0,0,0,0,0,0,0,0,0,0,0,0,0,0,0,0,0,0,0,0,0,0,0,0,0,0,0,0,0,0,0,0,0,0,0,0,0,0,0,0,0,0,0,0,0,0,0,0,0,0,0,0,0,0,0,0,0,0,0,0,0,0,0,0,0,0,0,0,0,0,0,0,0,0,0,0,0,0,0,0,0,0,0,0,0,0,0,0,0,0,0,0,0,0,0,0,0,0,0,0,0,0,0,0,0,0,0,0,0,0,0,0,0,0,0,0,0,0,0,0,0,0,0,0,0,0,0,0,0,0,0,0,0,0,0,0,0,0,0,0,0,0,0,0,0,0,0,0,0,0,0,0,0,0,0,0,0,0,0,0,0,0,0,0,0,0,0,0,0,0,0,0,0,0,0,0,0,0,0,0,0,0,0,0,0,0,0,0,0,0,0,0,0,0,0,0,0,0,0,0,0,0,0,0,0,0,0,0,0,0,0,0,0,0,0,0,0,0,0,0,0,0,0,0,0,0,0,0,0,0,0,0,0,0,0,0,0,0,0,0,0,0,0,0,0,0,0,0,0,0,0,0,0,0,0,0,0,0,0,0,0,0,0,0,0,0,0,0,0,0,0,0,0,0,0,0,0,0,0,0,0,0,0,0,0,0,0,0,0,0,0,0,0,0,0,0,0,0,0,0,0,0,0,0,0,0,0,0,0,0,0,0,0,0,0,0,0,0,0,0,0,0,0,0,0,0,0,0,0,0,0,0,0,0,0,0,0,0,0,0,0,0,0,0,0,0,0,0,0,0,0,0,0,0,0,0,0,0,0,0,0,0,0,0,0,0,0,0,0,0,0,0,0,0,0,0,0,0,0,0,0,0,0,0,0,0,0,0,0,0,0,0,0,0,0,0,0,0,0,0,0,0,0,0,0,0,0,0,0,0,0,0,0,0,0,0,0,0,0,0,0,0,0,0,0,0,0,0,0,0,0,0,0,0,0,0,0,0,0,0,0,0,0,0,0,0,0,0,0,0,0,0,0,0,0,0,0,0,0,0,0,0,0,0,0,0,0,0,0,0,0,0,0,0,0,0,0,0,0,0,0,0,0,0,0,0,0,0,0,0,0,0,0,0,0,0,0,0,0,0,0,0,0,0,0,0,0,0,0,0,0,0,0,0,0,0,0,0,0,0,0,0,0,0,0,0,0,0,0,0,0,0,0,0,0,0,0,0],"trees":[{"base_weights":[4.470112E-3,-8.2818754E-2,2.3561025E-1,-1.9686218E-1,-4.3839686E-2,1.1469814E-1,3.203321E-1,-2.1567146E-1,-1.2330584E-3,-1.0869017E-1,-1.36459675E-2,1.1567288E-2,1.5626079E-1,9.17687E-3,8.908666E-4,-6.2298574E-3,-7.4988365E-4,-1.3053043E-1,1.4321599E-2,-6.6048235E-2,5.0390523E-2,-9.976024E-4,1.8851284E-3,6.932438E-4,4.870216E-3,-4.846356E-3,-2.0042926E-3,-1.3946424E-3,2.0716835E-3,4.0603807E-4,-1.989141E-3,-6.852377E-4,2.2059875E-3],"categories":[],"categories_nodes":[],"categories_segments":[],"categories_sizes":[],"default_left":[0,0,0,0,0,0,0,0,0,0,0,0,0,0,0,0,0,0,0,0,0,0,0,0,0,0,0,0,0,0,0,0,0],"id":0,"left_children":[1,3,5,7,9,11,13,15,-1,17,19,21,23,-1,-1,-1,-1,25,27,29,31,-1,-1,-1,-1,-1,-1,-1,-1,-1,-1,-1,-1],"loss_changes":[8.960655E0,1.359195E0,9.2658806E-1,1.4541721E-1,4.798382E-1,2.571764E-1,8.4803104E-2,5.1528454E-2,0E0,2.2781253E-1,6.387077E-1,9.4811104E-2,7.12924E-2,0E0,0E0,0E0,0E0,6.322932E-2,1.0866078E-1,5.4086745E-2,2.0442821E-1,0E0,0E0,0E0,0E0,0E0,0E0,0E0,0E0,0E0,0E0,0E0,0E0],"parents":[2147483647,0,0,1,1,2,2,3,3,4,4,5,5,6,6,7,7,9,9,10,10,11,11,12,12,17,17,18,18,19,19,20,20],"right_children":[2,4,6,8,10,12,14,16,-1,18,20,22,24,-1,-1,-1,-1,26,28,30,32,-1,-1,-1,-1,-1,-1,-1,-1,-1,-1,-1,-1],"split_conditions":[1E2,6.5E1,1.13E2,7.69812E-1,6.349619E-1,6.393855E-1,3.127E0,8E0,-1.2330584E-3,4E0,7.9E1,1E0,3E0,9.17687E-3,8.908666E-4,-6.2298574E-3,-7.4988365E-4,5.087289E-1,5.06E-1,6.537136E-1,6.6209096E-1,-9.976024E-4,1.8851284E-3,6.932438E-4,4.870216E-3,-4.846356E-3,-2.0042926E-3,-1.3946424E-3,2.0716835E-3,4.0603807E-4,-1.989141E-3,-6.852377E-4,2.2059875E-3],"split_indices":[0,0,0,13,13,13,10,3,0,3,0,6,1,0,0,0,0,13,10,13,13,0,0,0,0,0,0,0,0,0,0,0,0],"split_type":[0,0,0,0,0,0,0,0,0,0,0,0,0,0,0,0,0,0,0,0,0,0,0,0,0,0,0,0,0,0,0,0,0],"sum_hessian":[4.27E2,3.14E2,1.13E2,7.1E1,2.43E2,5.5E1,5.8E1,6E1,1.1E1,7E1,1.73E2,1.9E1,3.6E1,5.5E1,3E0,5.6E1,4E0,5.9E1,1.1E1,9.5E1,7.8E1,1.2E1,7E0,7E0,2.9E1,2.4E1,3.5E1,6E0,5E0,5E0,9E1,2.2E1,5.6E1],"tree_param":{"num_deleted":"0","num_feature":"23","num_nodes":"33","size_leaf_vector":"1"}},{"base_weights":[-9.993465E-3,-8.5363865E-2,2.1185403E-1,-2.017566E-1,-4.01332E-2,8.57885E-2,3.0337995E-1,-1.6009026E-3,-6.0077985E-3,-1.1129273E-1,9.874857E-4,1.2608929E-1,-1.1458364E-3,3.4740195E-4,8.817078E-3,-1.3384545E-1,1.0180605E-3,-4.0739033E-2,7.206891E-2,-5.2129215E-4,1.397773E-1,3.5177308E-4,-4.0417397E-3,-1.6379785E-3,-1.9139683E-4,3.7620366E-3,-2.856821E-4,4.2022374E-3,2.560626E-4],"categories":[],"categories_nodes":[],"categories_segments":[],"categories_sizes":[],"default_left":[0,0,0,0,0,0,0,0,0,0,0,0,0,0,0,0,0,0,0,0,0,0,0,0,0,0,0,0,0],"id":1,"left_children":[1,3,5,7,9,11,13,-1,-1,15,17,19,-1,-1,-1,21,-1,23,25,-1,27,-1,-1,-1,-1,-1,-1,-1,-1],"loss_changes":[7.292045E0,1.6387255E0,1.0504804E0,7.067013E-2,7.170835E-1,3.455156E-1,1.989274E-1,0E0,0E0,3.4177053E-1,5.111156E-1,1.1544579E-1,0E0,0E0,0E0,1.4784396E-1,0E0,6.2976986E-2,3.4267452E-1,0E0,5.1237106E-2,0E0,0E0,0E0,0E0,0E0,0E0,0E0,0E0],"parents":[2147483647,0,0,1,1,2,2,3,3,4,4,5,5,6,6,9,9,10,10,11,11,15,15,17,17,18,18,20,20],"right_children":[2,4,6,8,10,12,14,-1,-1,16,18,20,-1,-1,-1,22,-1,24,26,-1,28,-1,-1,-1,-1,-1,-1,-1,-1],"split_conditions":[9.8E1,6.5E1,1.11E2,3.57E-1,1E0,2.75E0,2.609732E-1,-1.6009026E-3,-6.0077985E-3,4E0,8.2E1,3.57E-1,-1.1458364E-3,3.4740195E-4,8.817078E-3,7.1E-2,1.0180605E-3,2.24E-1,2.005E0,-5.2129215E-4,5E0,3.5177308E-4,-4.0417397E-3,-1.6379785E-3,-1.9139683E-4,3.7620366E-3,-2.856821E-4,4.2022374E-3,2.560626E-4],"split_indices":[0,0,0,8,20,8,13,0,0,3,0,8,0,0,0,9,0,10,8,0,3,0,0,0,0,0,0,0,0],"split_type":[0,0,0,0,0,0,0,0,0,0,0,0,0,0,0,0,0,0,0,0,0,0,0,0,0,0,0,0,0],"sum_hessian":[4.18E2,3.16E2,1.02E2,8E1,2.36E2,5E1,5.2E1,1.1E1,6.9E1,8.1E1,1.55E2,3.8E1,1.2E1,3E0,4.9E1,7.1E1,1E1,1E2,5.5E1,3E0,3.5E1,5E0,6.6E1,6.1E1,3.9E1,2.8E1,2.7E1,3.1E1,4E0],"tree_param":{"num_deleted":"0","num_feature":"23","num_nodes":"29","size_leaf_vector":"1"}},{"base_weights":[1.8789028E-4,-7.931431E-2,2.0986024E-1,-5.69772E-3,-3.9726775E-2,1.0448017E-1,7.94721E-3,-8.163264E-2,9.770807E-3,1.4621724E-1,-1.4834082E-3,-3.2524557E-3,-1.4644744E-3,-1.5941022E-3,3.0234756E-2,4.4059022E-3,-0E0,-1.5950672E-3,1.1464439E-3],"categories":[],"categories_nodes":[],"categories_segments":[],"categories_sizes":[],"default_left":[0,0,0,0,0,0,0,1,0,0,0,0,0,0,0,0,0,0,0],"id":2,"left_children":[1,3,5,-1,7,9,-1,11,13,15,-1,-1,-1,-1,17,-1,-1,-1,-1],"loss_changes":[7.257841E0,1.4948146E0,6.927185E-1,0E0,5.270207E-1,4.8727006E-1,0E0,8.600336E-2,1.8330432E-1,9.227908E-2,0E0,0E0,0E0,0E0,1.1589032E-1,0E0,0E0,0E0,0E0],"parents":[2147483647,0,0,1,1,2,2,4,4,5,5,7,7,8,8,9,9,14,14],"right_children":[2,4,6,-1,8,10,-1,12,14,16,-1,-1,-1,-1,18,-1,-1,-1,-1],"split_conditions":[9.8E1,6.1E1,1.12E2,-5.69772E-3,7.9E1,1E0,7.94721E-3,2E0,1E0,7E0,-1.4834082E-3,-3.2524557E-3,-1.4644744E-3,-1.5941022E-3,1E0,4.4059022E-3,-0E0,-1.5950672E-3,1.1464439E-3],"split_indices":[0,0,0,0,0,22,0,3,5,3,0,0,0,0,3,0,0,0,0],"split_type":[0,0,0,0,0,0,0,0,0,0,0,0,0,0,0,0,0,0,0],"sum_hessian":[4.18E2,3.07E2,1.11E2,6.5E1,2.42E2,5.5E1,5.6E1,1.28E2,1.14E2,4.4E1,1.1E1,4.6E1,8.2E1,2.3E1,9.1E1,4E1,4E0,6E0,8.5E1],"tree_param":{"num_deleted":"0","num_feature":"23","num_nodes":"19","size_leaf_vector":"1"}},{"base_weights":[-1.8694672E-3,-9.721049E-2,1.2308324E-1,-5.9252597E-2,-2.0695353E-1,-2.2636624E-2,1.4787176E-1,-7.3151186E-2,1.1000966E-2,-2.3547749E-1,1.1823102E-3,2.7289929E-2,-2.6094816E-3,7.489209E-2,1.84854E-1,-1.5584607E-2,-2.2896042E-3,-1.5426995E-3,1.0894797E-3,-6.836551E-3,-3.9944611E-4,2.5797798E-3,-9.3858E-4,-1.6087396E-3,5.831756E-3,1.9578786E-1,-3.3531644E-4,-1.4940967E-3,8.585442E-4,1.0589927E-3,-2.4185851E-3,3.9534442E-4,5.6275753E-3],"categories":[],"categories_nodes":[],"categories_segments":[],"categories_sizes":[],"default_left":[0,0,0,0,0,0,0,0,0,0,0,0,0,0,0,0,0,0,0,0,0,0,0,0,0,0,0,0,0,0,0,0,0],"id":3,"left_children":[1,3,5,7,9,11,13,15,17,19,-1,21,-1,23,25,27,-1,-1,-1,-1,-1,-1,-1,29,-1,31,-1,-1,-1,-1,-1,-1,-1],"loss_changes":[5.3304143E0,9.498799E-1,7.289269E-1,2.0302838E-1,5.261264E-1,1.4898588E-1,3.2921815E-1,7.680005E-2,9.4841525E-2,9.467673E-2,0E0,1.3763304E-1,0E0,7.3069006E-1,2.4608135E-1,7.395855E-2,0E0,0E0,0E0,0E0,0E0,0E0,0E0,2.1021573E-1,0E0,8.872318E-2,0E0,0E0,0E0,0E0,0E0,0E0,0E0],"parents":[2147483647,0,0,1,1,2,2,3,3,4,4,5,5,6,6,7,7,8,8,9,9,11,11,13,13,14,14,15,15,23,23,25,25],"right_children":[2,4,6,8,10,12,14,16,18,20,-1,22,-1,24,26,28,-1,-1,-1,-1,-1,-1,-1,30,-1,32,-1,-1,-1,-1,-1,-1,-1],"split_conditions":[2E0,5.04E-1,2.6984638E-1,1E0,4E0,3.68E-1,6.393855E-1,3.8363674E-1,4.3185288E-1,2.8881E1,1.1823102E-3,1.3647789E-1,-2.6094816E-3,3E0,4.08E-1,2.565459E-1,-2.2896042E-3,-1.5426995E-3,1.0894797E-3,-6.836551E-3,-3.9944611E-4,2.5797798E-3,-9.3858E-4,1E0,5.831756E-3,3.389209E-1,-3.3531644E-4,-1.4940967E-3,8.585442E-4,1.0589927E-3,-2.4185851E-3,3.9534442E-4,5.6275753E-3],"split_indices":[2,10,12,6,11,9,13,12,12,9,0,12,0,11,9,12,0,0,0,0,0,0,0,22,0,12,0,0,0,0,0,0,0],"split_type":[0,0,0,0,0,0,0,0,0,0,0,0,0,0,0,0,0,0,0,0,0,0,0,0,0,0,0,0,0,0,0,0,0],"sum_hessian":[4.3E2,2.45E2,1.85E2,1.92E2,5.3E1,2.7E1,1.58E2,1.6E2,3.2E1,4.8E1,5E0,1.9E1,8E0,6.2E1,9.6E1,2.5E1,1.35E2,7E0,2.5E1,4.5E1,3E0,7E0,1.2E1,4.5E1,1.7E1,9.1E1,5E0,1.3E1,1.2E1,3.4E1,1.1E1,4E0,8.7E1],"tree_param":{"num_deleted":"0","num_feature":"23","num_nodes":"33","size_leaf_vector":"1"}},{"base_weights":[1.3888319E-3,-1.14129536E-1,5.038723E-2,-1.614278E-1,-5.2307773E-2,3.1779118E-2,1.7463285E-1,-7.311158E-4,-1.8180917E-1,-7.051527E-2,2.6012922E-3,5.79094E-2,-1.1816351E-1,5.3871763E-3,-3.942932E-4,-1.098667E-3,-1.9660676E-1,4.7497034E-2,-2.5869051E-3,-6.561185E-4,6.9027096E-2,-1.3702722E-1,-1.39636705E-2,-6.295924E-3,-1.7393867E-3,-6.0928863E-4,2.1344603E-3,7.803722E-4,2.337255E-3,-4.3155816E-3,-1.9840283E-4,-2.0339724E-3,1.5207274E-3],"categories":[],"categories_nodes":[],"categories_segments":[],"categories_sizes":[],"default_left":[0,0,0,0,0,0,0,0,0,0,0,0,0,0,0,0,0,0,0,0,0,0,0,0,0,0,0,0,0,0,0,0,0],"id":4,"left_children":[1,3,5,7,9,11,13,-1,15,17,-1,19,21,-1,-1,-1,23,25,-1,-1,27,29,31,-1,-1,-1,-1,-1,-1,-1,-1,-1,-1],"loss_changes":[2.5784197E0,3.2313275E-1,6.906682E-1,1.5857899E-1,2.4753529E-1,1.1906437E0,1.6500008E-1,0E0,6.2273026E-2,2.1985829E-1,0E0,2.421729E-1,7.304889E-2,0E0,0E0,0E0,8.9172125E-2,4.8415948E-2,0E0,0E0,1.1611414E-1,7.810795E-2,1.0237993E-1,0E0,0E0,0E0,0E0,0E0,0E0,0E0,0E0,0E0,0E0],"parents":[2147483647,0,0,1,1,2,2,3,3,4,4,5,5,6,6,8,8,9,9,11,11,12,12,16,16,17,17,20,20,21,21,22,22],"right_children":[2,4,6,8,10,12,14,-1,16,18,-1,20,22,-1,-1,-1,24,26,-1,-1,28,30,32,-1,-1,-1,-1,-1,-1,-1,-1,-1,-1],"split_conditions":[1E0,6.4883536E-1,2.00001E0,2E-1,2.1050766E0,5.04E-1,9.421E0,-7.311158E-4,4.356169E-2,2.4825075E-1,2.6012922E-3,2.663892E-1,1.609014E0,5.3871763E-3,-3.942932E-4,-1.098667E-3,2.3506448E0,9.4E-2,-2.5869051E-3,-6.561185E-4,6.740266E-1,7.073E0,2.66E-1,-6.295924E-3,-1.7393867E-3,-6.0928863E-4,2.1344603E-3,7.803722E-4,2.337255E-3,-4.3155816E-3,-1.9840283E-4,-2.0339724E-3,1.5207274E-3],"split_indices":[5,13,4,10,12,10,9,0,12,12,0,12,12,0,0,0,12,9,0,0,13,9,9,0,0,0,0,0,0,0,0,0,0],"split_type":[0,0,0,0,0,0,0,0,0,0,0,0,0,0,0,0,0,0,0,0,0,0,0,0,0,0,0,0,0,0,0,0,0],"sum_hessian":[4.38E2,1.27E2,3.11E2,6.4E1,6.3E1,2.8E2,3.1E1,1.1E1,5.3E1,6E1,3E0,2.43E2,3.7E1,2.8E1,3E0,8E0,4.5E1,8E0,5.2E1,2.8E1,2.15E2,2.9E1,8E0,3.2E1,1.3E1,3E0,5E0,6.4E1,1.51E2,2.4E1,5E0,4E0,4E0],"tree_param":{"num_deleted":"0","num_feature":"23","num_nodes":"33","size_leaf_vector":"1"}},{"base_weights":[-1.0616367E-3,-9.302552E-2,1.281698E-1,-1.2903267E-1,-6.476909E-3,4.922621E-3,1.9812436E-1,-9.8442525E-2,-2.3402123E-1,5.3879716E-2,-6.820087E-2,3.694908E-2,-8.820208E-2,6.3259406E-3,-4.0352106E-2,-3.0364112E-3,-8.326185E-4,-7.1320287E-3,9.799183E-5,2.5051269E-3,-1.1345274E-3,-9.411787E-2,2.2680662E-3,-1.3255298E-3,5.8061473E-2,1.7211058E-4,-3.28468E-3,5.535868E-4,-1.9662075E-3,-1.5677661E-3,1.2005264E-3,-5.8448646E-4,-3.6863284E-3,2.7448693E-3,6.648878E-4],"categories":[],"categories_nodes":[],"categories_segments":[],"categories_sizes":[],"default_left":[0,0,0,0,0,0,0,0,0,0,0,0,0,0,0,0,0,0,0,0,0,0,0,0,0,0,0,0,0,0,0,0,0,0,0],"id":5,"left_children":[1,3,5,7,9,11,13,15,17,19,21,23,25,-1,27,-1,29,-1,-1,-1,-1,31,-1,-1,33,-1,-1,-1,-1,-1,-1,-1,-1,-1,-1],"loss_changes":[5.5076947E0,8.3621645E-1,1.6527572E0,4.1169E-1,3.6244673E-1,2.6304203E-1,9.2941236E-1,1.6730368E-1,2.0055509E-1,2.015902E-1,2.5172126E-1,1.3955173E-1,7.017776E-2,0E0,4.9979012E-2,0E0,8.133459E-2,0E0,0E0,0E0,0E0,1.0073945E-1,0E0,0E0,5.654165E-2,0E0,0E0,0E0,0E0,0E0,0E0,0E0,0E0,0E0,0E0],"parents":[2147483647,0,0,1,1,2,2,3,3,4,4,5,5,6,6,7,7,8,8,9,9,10,10,11,11,12,12,14,14,16,16,21,21,24,24],"right_children":[2,4,6,8,10,12,14,16,18,20,22,24,26,-1,28,-1,30,-1,-1,-1,-1,32,-1,-1,34,-1,-1,-1,-1,-1,-1,-1,-1,-1,-1],"split_conditions":[3E0,2E0,2E0,3.35E0,1.973E0,6.624E0,6.968E0,6E0,6.858E0,3.39E-1,1.791E0,8.3E-2,1.66E-1,6.3259406E-3,2.79E-1,-3.0364112E-3,2E0,-7.1320287E-3,9.799183E-5,2.5051269E-3,-1.1345274E-3,2.585E0,2.2680662E-3,-1.3255298E-3,4.8746634E-1,1.7211058E-4,-3.28468E-3,5.535868E-4,-1.9662075E-3,-1.5677661E-3,1.2005264E-3,-5.8448646E-4,-3.6863284E-3,2.7448693E-3,6.648878E-4],"split_indices":[1,2,2,8,8,8,8,3,10,10,10,10,10,0,10,0,1,0,0,0,0,8,0,0,12,0,0,0,0,0,0,0,0,0,0],"split_type":[0,0,0,0,0,0,0,0,0,0,0,0,0,0,0,0,0,0,0,0,0,0,0,0,0,0,0,0,0,0,0,0,0,0,0],"sum_hessian":[4.46E2,2.62E2,1.84E2,1.82E2,8E1,7E1,1.14E2,1.54E2,2.8E1,4.1E1,3.9E1,5.6E1,1.4E1,1.02E2,1.2E1,1.38E2,1.6E1,2.5E1,3E0,3E1,1.1E1,3.6E1,3E0,9E0,4.7E1,5E0,9E0,5E0,7E0,6E0,1E1,1.7E1,1.9E1,1.4E1,3.3E1],"tree_param":{"num_deleted":"0","num_feature":"23","num_nodes":"35","size_leaf_vector":"1"}},{"base_weights":[8.033925E-4,-9.3717374E-2,1.2619402E-1,-1.7441855E-1,-3.825453E-2,1.1576782E-2,1.9372228E-1,-2.0264983E-1,-3.5314094E-2,-7.025456E-2,3.8064413E-2,-1.0015327E-2,2.7732744E-3,2.2078052E-1,-4.2458493E-2,-6.0716295E-3,-6.793228E-5,-1.7920163E-3,7.9053803E-4,-8.349438E-2,3.5843073E-4,2.2541203E-3,-5.6440005E-4,1.4519538E-2,-1.6661964E-3,1.6262046E-1,8.630747E-3,-2.1148662E-3,1.0256579E-3,-2.4339007E-3,3.2795005E-4,1.455305E-3,-1.8245671E-3,1.2827219E-3,5.1218765E-3],"categories":[],"categories_nodes":[],"categories_segments":[],"categories_sizes":[],"default_left":[0,0,0,0,0,0,0,0,0,0,0,0,0,0,0,0,0,0,0,0,0,0,0,0,0,0,0,0,0,0,0,0,0,0,0],"id":6,"left_children":[1,3,5,7,9,11,13,15,17,19,21,23,-1,25,27,-1,-1,-1,-1,29,-1,-1,-1,31,-1,33,-1,-1,-1,-1,-1,-1,-1,-1,-1],"loss_changes":[5.3143077E0,1.086251E0,1.4718008E0,3.3690906E-1,4.2065302E-1,1.6211359E-1,8.5309696E-1,2.4972606E-1,6.716408E-2,1.389525E-1,1.4864379E-1,9.645711E-2,0E0,1.2971544E-1,7.668021E-2,0E0,0E0,0E0,0E0,4.7214687E-2,0E0,0E0,0E0,1.9802992E-1,0E0,1.363535E-1,0E0,0E0,0E0,0E0,0E0,0E0,0E0,0E0,0E0],"parents":[2147483647,0,0,1,1,2,2,3,3,4,4,5,5,6,6,7,7,8,8,9,9,10,10,11,11,13,13,14,14,19,19,23,23,25,25],"right_children":[2,4,6,8,10,12,14,16,18,20,22,24,-1,26,28,-1,-1,-1,-1,30,-1,-1,-1,32,-1,34,-1,-1,-1,-1,-1,-1,-1,-1,-1],"split_conditions":[3E0,1E0,2E0,7.1879405E-1,2E0,4E0,6.968E0,2.00001E0,3.11E-1,1E0,1.973E0,7.260504E-1,2.7732744E-3,4E0,5.975296E-1,-6.0716295E-3,-6.793228E-5,-1.7920163E-3,7.9053803E-4,8.2018375E-1,3.5843073E-4,2.2541203E-3,-5.6440005E-4,3.954E0,-1.6661964E-3,1E0,8.630747E-3,-2.1148662E-3,1.0256579E-3,-2.4339007E-3,3.2795005E-4,1.455305E-3,-1.8245671E-3,1.2827219E-3,5.1218765E-3],"split_indices":[1,20,2,13,2,1,8,4,8,6,8,13,0,1,13,0,0,0,0,13,0,0,0,8,0,20,0,0,0,0,0,0,0,0,0],"split_type":[0,0,0,0,0,0,0,0,0,0,0,0,0,0,0,0,0,0,0,0,0,0,0,0,0,0,0,0,0,0,0,0,0,0,0],"sum_hessian":[4.31E2,2.47E2,1.84E2,9.3E1,1.54E2,7.2E1,1.12E2,7.4E1,1.9E1,1.09E2,4.5E1,6.4E1,8E0,1.01E2,1.1E1,6.8E1,6E0,1.3E1,6E0,9.4E1,1.5E1,2.4E1,2.1E1,4.7E1,1.7E1,7.6E1,2.5E1,8E0,3E0,9.1E1,3E0,3.4E1,1.3E1,1.6E1,6E1],"tree_param":{"num_deleted":"0","num_feature":"23","num_nodes":"35","size_leaf_vector":"1"}},{"base_weights":[-1.597338E-3,-5.989156E-2,2.4241538E-1,-1.3312472E-1,4.3028356E-3,8.596981E-2,2.7809474E-1,-9.866803E-2,-6.1604627E-3,3.447029E-2,-1.2237429E-1,2.844531E-3,-3.7337636E-4,8.173281E-3,1.3887156E-3,-1.309849E-1,-1.7184615E-3,-2.5377857E-2,5.2243024E-2,-4.0500164E-3,1.2305038E-4,-2.9155465E-6,-3.9471444E-3,-1.228551E-3,9.362961E-4,7.411258E-4,2.7766805E-3],"categories":[],"categories_nodes":[],"categories_segments":[],"categories_sizes":[],"default_left":[0,0,0,0,0,0,0,0,0,0,0,0,0,0,0,0,0,0,0,0,0,0,0,0,0,0,0],"id":7,"left_children":[1,3,5,7,9,11,13,15,-1,17,19,-1,-1,-1,-1,21,-1,23,25,-1,-1,-1,-1,-1,-1,-1,-1],"loss_changes":[6.394971E0,1.7102187E0,2.75589E-1,3.24862E-1,8.074426E-1,5.8126464E-2,1.0670614E-1,9.397149E-2,0E0,1.9206773E-1,1.2470043E-1,0E0,0E0,0E0,0E0,9.2196345E-2,0E0,6.233468E-2,1.3944712E-1,0E0,0E0,0E0,0E0,0E0,0E0,0E0,0E0],"parents":[2147483647,0,0,1,1,2,2,3,3,4,4,5,5,6,6,7,7,9,9,10,10,15,15,17,17,18,18],"right_children":[2,4,6,8,10,12,14,16,-1,18,20,-1,-1,-1,-1,22,-1,24,26,-1,-1,-1,-1,-1,-1,-1,-1],"split_conditions":[1.08E2,7.5E1,1.12E2,1E0,4.206E0,3.864E0,6.968E0,6.5E1,-6.1604627E-3,1E0,6.0521895E-1,2.844531E-3,-3.7337636E-4,8.173281E-3,1.3887156E-3,2.3E-1,-1.7184615E-3,1.9580554E0,9.1E1,-4.0500164E-3,1.2305038E-4,-2.9155465E-6,-3.9471444E-3,-1.228551E-3,9.362961E-4,7.411258E-4,2.7766805E-3],"split_indices":[0,0,0,22,8,8,8,0,0,5,13,0,0,0,0,8,0,12,0,0,0,0,0,0,0,0,0],"split_type":[0,0,0,0,0,0,0,0,0,0,0,0,0,0,0,0,0,0,0,0,0,0,0,0,0,0,0],"sum_hessian":[4.32E2,3.54E2,7.8E1,1.61E2,1.93E2,2E1,5.8E1,1.29E2,3.2E1,1.61E2,3.2E1,1.7E1,3E0,5.2E1,6E0,5.7E1,7.2E1,3.6E1,1.25E2,2.6E1,6E0,5E0,5.2E1,2.9E1,7E0,9E1,3.5E1],"tree_param":{"num_deleted":"0","num_feature":"23","num_nodes":"27","size_leaf_vector":"1"}},{"base_weights":[-2.0870748E-3,2.9000107E-2,-1.1425852E-1,6.808619E-3,8.32979E-2,-1.6856857E-1,8.7086685E-2,1.4229128E-2,-6.639915E-2,1.0136846E-1,-2.36164E-3,6.4937025E-4,-1.7859988E-1,-1.4094115E-3,1.3078642E-1,-4.962424E-3,6.1415747E-2,-2.379566E-3,5.52929E-4,3.2710095E-3,2.410724E-4,4.285411E-4,-1.8819468E-1,4.3974584E-3,-3.3574578E-4,1.4010826E-4,-2.0575896E-3,-1.7449664E-4,2.41913E-3,-5.730346E-3,-5.543902E-4],"categories":[],"categories_nodes":[],"categories_segments":[],"categories_sizes":[],"default_left":[0,0,0,0,0,0,0,0,0,0,0,0,0,0,0,0,0,0,0,0,0,0,0,0,0,0,0,0,0,0,0],"id":8,"left_children":[1,3,5,7,9,11,13,15,17,19,-1,-1,21,-1,23,25,27,-1,-1,-1,-1,-1,29,-1,-1,-1,-1,-1,-1,-1,-1],"loss_changes":[1.5866032E0,4.2479366E-1,1.2071394E0,1.5088642E-1,3.867991E-1,1.917193E-1,2.183478E-1,2.2520588E-1,5.7048127E-2,1.3528222E-1,0E0,0E0,1.699791E-1,0E0,1.0463995E-1,1.2913632E-1,1.2832195E-1,0E0,0E0,0E0,0E0,0E0,1.8507743E-1,0E0,0E0,0E0,0E0,0E0,0E0,0E0,0E0],"parents":[2147483647,0,0,1,1,2,2,3,3,4,4,5,5,6,6,7,7,8,8,9,9,12,12,14,14,15,15,16,16,22,22],"right_children":[2,4,6,8,10,12,14,16,18,20,-1,-1,22,-1,24,26,28,-1,-1,-1,-1,-1,30,-1,-1,-1,-1,-1,-1,-1,-1],"split_conditions":[1E0,1E0,2.00001E0,3.53E-1,1E0,6.3E-2,4.15E-1,1.97E-1,1E0,1E0,-2.36164E-3,6.4937025E-4,1.27E-1,-1.4094115E-3,3.122E0,1.78E-1,6.4337856E-1,-2.379566E-3,5.52929E-4,3.2710095E-3,2.410724E-4,4.285411E-4,9.421E0,4.3974584E-3,-3.3574578E-4,1.4010826E-4,-2.0575896E-3,-1.7449664E-4,2.41913E-3,-5.730346E-3,-5.543902E-4],"split_indices":[22,6,4,10,19,9,10,9,16,17,0,0,10,0,9,9,13,0,0,0,0,0,9,0,0,0,0,0,0,0,0],"split_type":[0,0,0,0,0,0,0,0,0,0,0,0,0,0,0,0,0,0,0,0,0,0,0,0,0,0,0,0,0,0,0],"sum_hessian":[4.38E2,3.48E2,9E1,2.54E2,9.4E1,7.2E1,1.8E1,2.37E2,1.7E1,8.8E1,6E0,3E0,6.9E1,4E0,1.4E1,1.74E2,6.3E1,1.4E1,3E0,7.3E1,1.5E1,3E0,6.6E1,1.1E1,3E0,1.59E2,1.5E1,1.9E1,4.4E1,5.8E1,8E0],"tree_param":{"num_deleted":"0","num_feature":"23","num_nodes":"31","size_leaf_vector":"1"}},{"base_weights":[5.8596855E-4,-7.372173E-2,1.9740184E-1,-1.8484876E-1,-3.2563116E-2,2.2222316E-1,-8.3253905E-3,-1.2185341E-3,-1.9826788E-1,-9.649207E-2,-1.3954641E-3,1.2200329E-1,7.9254275E-3,-1.2242327E-3,1.5244747E-3,-5.716157E-3,-6.2254886E-4,-1.2043522E-1,1.795556E-2,-3.951616E-2,6.989291E-2,1.012643E-3,1.5283825E-1,-9.5328013E-4,-3.982377E-3,-1.2161079E-3,2.0385943E-3,6.217929E-4,-1.3227095E-3,3.2333946E-3,2.2287879E-5,4.714635E-3,3.9065327E-4],"categories":[],"categories_nodes":[],"categories_segments":[],"categories_sizes":[],"default_left":[0,0,0,0,0,0,0,0,0,0,0,0,0,0,0,0,0,0,0,0,0,0,0,0,0,0,0,0,0,0,0,0,0],"id":9,"left_children":[1,3,5,7,9,11,13,-1,15,17,19,21,-1,-1,-1,-1,-1,23,25,27,29,-1,31,-1,-1,-1,-1,-1,-1,-1,-1,-1,-1],"loss_changes":[6.601244E0,1.4462838E0,6.479645E-1,8.844948E-2,4.9627817E-1,3.8942528E-1,6.970597E-2,0E0,5.419445E-2,2.4279231E-1,5.04208E-1,1.0384667E-1,0E0,0E0,0E0,0E0,0E0,9.089166E-2,1.01731405E-1,6.882143E-2,2.0568371E-1,0E0,6.986976E-2,0E0,0E0,0E0,0E0,0E0,0E0,0E0,0E0,0E0,0E0],"parents":[2147483647,0,0,1,1,2,2,3,3,4,4,5,5,6,6,8,8,9,9,10,10,11,11,17,17,18,18,19,19,20,20,22,22],"right_children":[2,4,6,8,10,12,14,-1,16,18,20,22,-1,-1,-1,-1,-1,24,26,28,30,-1,32,-1,-1,-1,-1,-1,-1,-1,-1,-1,-1],"split_conditions":[9.8E1,6.5E1,6.968E0,3.16E-1,6.349619E-1,1.13E2,2E0,-1.2185341E-3,8E0,4E0,8.1E1,6.622539E-1,7.9254275E-3,-1.2242327E-3,1.5244747E-3,-5.716157E-3,-6.2254886E-4,2.743E0,3E0,6.537136E-1,2.011E0,1.012643E-3,2.406E0,-9.5328013E-4,-3.982377E-3,-1.2161079E-3,2.0385943E-3,6.217929E-4,-1.3227095E-3,3.2333946E-3,2.2287879E-5,4.714635E-3,3.9065327E-4],"split_indices":[0,0,8,8,13,0,11,0,3,3,0,13,0,0,0,0,0,8,1,13,8,0,8,0,0,0,0,0,0,0,0,0,0],"split_type":[0,0,0,0,0,0,0,0,0,0,0,0,0,0,0,0,0,0,0,0,0,0,0,0,0,0,0,0,0,0,0,0,0],"sum_hessian":[4.34E2,3.19E2,1.15E2,7.8E1,2.41E2,1.02E2,1.3E1,1E1,6.8E1,7.3E1,1.68E2,4.9E1,5.3E1,1E1,3E0,6.4E1,4E0,6E1,1.3E1,1.12E2,5.6E1,1.8E1,3.1E1,1.7E1,4.3E1,7E0,6E0,1.1E1,1.01E2,3E1,2.6E1,2.6E1,5E0],"tree_param":{"num_deleted":"0","num_feature":"23","num_nodes":"33","size_leaf_vector":"1"}},{"base_weights":[-4.5532957E-4,-8.3581135E-2,1.1199443E-1,-1.6075748E-1,-3.4363117E-2,-2.0932009E-4,1.7449892E-1,-1.7287903E-1,-2.692551E-4,-6.2265676E-2,3.7540358E-2,2.50531E-2,-2.009729E-3,2.0282684E-1,-3.1733986E-2,-1.980946E-1,-5.6562364E-2,-2.1984046E-3,-6.0668277E-5,2.2820786E-3,-6.2156864E-4,1.6580488E-3,-1.2084327E-3,5.987615E-3,5.9810217E-4,-1.8291725E-3,1.1117869E-3,-5.7533234E-3,-8.418762E-4,-2.6939583E-3,1.2453257E-4],"categories":[],"categories_nodes":[],"categories_segments":[],"categories_sizes":[],"default_left":[0,0,0,0,0,0,0,0,0,0,0,0,0,0,0,0,0,0,0,0,0,0,0,0,0,0,0,0,0,0,0],"id":10,"left_children":[1,3,5,7,9,11,13,15,-1,17,19,21,-1,23,25,27,29,-1,-1,-1,-1,-1,-1,-1,-1,-1,-1,-1,-1,-1,-1],"loss_changes":[4.303712E0,9.572191E-1,1.3729775E0,1.6972375E-1,3.668543E-1,1.5884078E-1,7.905345E-1,1.7416477E-1,0E0,1.263895E-1,1.58716E-1,1.7521763E-1,0E0,2.0632792E-1,7.8069076E-2,4.915929E-2,7.4222334E-2,0E0,0E0,0E0,0E0,0E0,0E0,0E0,0E0,0E0,0E0,0E0,0E0,0E0,0E0],"parents":[2147483647,0,0,1,1,2,2,3,3,4,4,5,5,6,6,7,7,9,9,10,10,11,11,13,13,14,14,15,15,16,16],"right_children":[2,4,6,8,10,12,14,16,-1,18,20,22,-1,24,26,28,30,-1,-1,-1,-1,-1,-1,-1,-1,-1,-1,-1,-1,-1,-1],"split_conditions":[3E0,1E0,2E0,4E0,2E0,6.624E0,6.968E0,6.8941844E-1,-2.692551E-4,7.318996E-1,1.973E0,7.2137016E-1,-2.009729E-3,7.677577E-1,5.975296E-1,1.3616E1,1.93E-1,-2.1984046E-3,-6.0668277E-5,2.2820786E-3,-6.2156864E-4,1.6580488E-3,-1.2084327E-3,5.987615E-3,5.9810217E-4,-1.8291725E-3,1.1117869E-3,-5.7533234E-3,-8.418762E-4,-2.6939583E-3,1.2453257E-4],"split_indices":[1,20,2,11,2,8,8,13,0,13,8,13,0,13,13,8,8,0,0,0,0,0,0,0,0,0,0,0,0,0,0],"split_type":[0,0,0,0,0,0,0,0,0,0,0,0,0,0,0,0,0,0,0,0,0,0,0,0,0,0,0,0,0,0,0],"sum_hessian":[4.43E2,2.56E2,1.87E2,9.2E1,1.64E2,7E1,1.17E2,8.4E1,8E0,1.19E2,4.5E1,5.6E1,1.4E1,1.03E2,1.4E1,6.4E1,2E1,9.1E1,2.8E1,2.4E1,2.1E1,3.8E1,1.8E1,9.5E1,8E0,1E1,4E0,5.9E1,5E0,9E0,1.1E1],"tree_param":{"num_deleted":"0","num_feature":"23","num_nodes":"31","size_leaf_vector":"1"}},{"base_weights":[1.3124549E-3,-7.3606044E-2,1.884901E-1,-5.661196E-3,-4.0819656E-2,8.005335E-2,7.2666835E-3,-1.0384664E-1,-4.717342E-3,1.2141707E-1,-1.4721177E-3,-1.2617043E-1,4.3143623E-2,-1.0085449E-3,5.3617455E-2,-3.32295E-4,3.6822816E-3,-3.729476E-3,2.28749E-4,-4.6297978E-4,2.3068134E-3,2.8691215E-3,-1.9866726E-4],"categories":[],"categories_nodes":[],"categories_segments":[],"categories_sizes":[],"default_left":[0,0,0,0,0,0,0,0,0,0,0,0,0,0,0,0,0,0,0,0,0,0,0],"id":11,"left_children":[1,3,5,-1,7,9,-1,11,13,15,-1,17,19,-1,21,-1,-1,-1,-1,-1,-1,-1,-1],"loss_changes":[6.020375E0,1.2315811E0,7.818389E-1,0E0,5.77472E-1,3.951447E-1,0E0,3.5163504E-1,3.3237344E-1,8.546883E-2,0E0,9.580886E-2,5.6408644E-2,0E0,1.9769025E-1,0E0,0E0,0E0,0E0,0E0,0E0,0E0,0E0],"parents":[2147483647,0,0,1,1,2,2,4,4,5,5,7,7,8,8,9,9,11,11,12,12,14,14],"right_children":[2,4,6,-1,8,10,-1,12,14,16,-1,18,20,-1,22,-1,-1,-1,-1,-1,-1,-1,-1],"split_conditions":[9.8E1,5.8E1,1.13E2,-5.661196E-3,1E0,2.75E0,7.2666835E-3,5E0,8.2E1,3.57E-1,-1.4721177E-3,1E0,3E0,-1.0085449E-3,2.005E0,-3.32295E-4,3.6822816E-3,-3.729476E-3,2.28749E-4,-4.6297978E-4,2.3068134E-3,2.8691215E-3,-1.9866726E-4],"split_indices":[0,0,0,0,20,8,0,3,0,8,0,16,1,0,8,0,0,0,0,0,0,0,0],"split_type":[0,0,0,0,0,0,0,0,0,0,0,0,0,0,0,0,0,0,0,0,0,0,0],"sum_hessian":[4.12E2,2.98E2,1.14E2,5.1E1,2.47E2,5.3E1,6.1E1,8.4E1,1.63E2,4.1E1,1.2E1,7.4E1,1E1,1.08E2,5.5E1,3E0,3.8E1,7E1,4E0,6E0,4E0,2.7E1,2.8E1],"tree_param":{"num_deleted":"0","num_feature":"23","num_nodes":"23","size_leaf_vector":"1"}},{"base_weights":[4.839558E-3,-7.644284E-2,1.1491585E-1,-1.5458815E-1,-3.0102754E-2,1.4952445E-1,-6.289941E-2,-1.6373749E-1,8.4737054E-4,-8.052803E-2,-8.195457E-3,1.07610576E-1,7.2487285E-3,-2.8676079E-3,1.0772547E-3,-1.8679653E-1,-1.4876189E-3,-2.664854E-3,-1.4402343E-4,2.5172627E-2,-1.6844895E-3,1.2853722E-1,-1.0543413E-2,-5.60312E-3,-3.560909E-4,-1.2007623E-3,1.3712525E-3,1.02842205E-5,3.711082E-3,-1.8697185E-3,8.9072896E-4],"categories":[],"categories_nodes":[],"categories_segments":[],"categories_sizes":[],"default_left":[0,0,0,0,0,0,0,0,0,0,0,0,0,0,0,0,0,0,0,0,0,0,0,0,0,0,0,0,0,0,0],"id":12,"left_children":[1,3,5,7,9,11,13,15,-1,17,19,21,-1,-1,-1,23,-1,-1,-1,25,-1,27,29,-1,-1,-1,-1,-1,-1,-1,-1],"loss_changes":[3.956929E0,8.816849E-1,1.2370298E0,2.0039749E-1,1.8275076E-1,4.9736667E-1,1.8412E-1,1.4114475E-1,0E0,5.3538293E-2,2.3785205E-1,3.3506715E-1,0E0,0E0,0E0,1.5462303E-1,0E0,0E0,0E0,1.5769272E-1,0E0,6.705952E-2,8.539496E-2,0E0,0E0,0E0,0E0,0E0,0E0,0E0,0E0],"parents":[2147483647,0,0,1,1,2,2,3,3,4,4,5,5,6,6,7,7,9,9,10,10,11,11,15,15,19,19,21,21,22,22],"right_children":[2,4,6,8,10,12,14,16,-1,18,20,22,-1,-1,-1,24,-1,-1,-1,26,-1,28,30,-1,-1,-1,-1,-1,-1,-1,-1],"split_conditions":[3E0,1E0,6.624E0,1.3616E1,2E0,4E0,6.0521895E-1,1E0,8.4737054E-4,2.3E-1,2.149E0,7.677577E-1,7.2487285E-3,-2.8676079E-3,1.0772547E-3,6E0,-1.4876189E-3,-2.664854E-3,-1.4402343E-4,1E0,-1.6844895E-3,5.3E-2,1E0,-5.60312E-3,-3.560909E-4,-1.2007623E-3,1.3712525E-3,1.02842205E-5,3.711082E-3,-1.8697185E-3,8.9072896E-4],"split_indices":[1,20,8,8,1,1,13,17,0,9,8,13,0,0,0,3,0,0,0,5,0,9,5,0,0,0,0,0,0,0,0],"split_type":[0,0,0,0,0,0,0,0,0,0,0,0,0,0,0,0,0,0,0,0,0,0,0,0,0,0,0,0,0,0,0],"sum_hessian":[4.25E2,2.46E2,1.79E2,8.4E1,1.62E2,1.51E2,2.8E1,8.1E1,3E0,4.2E1,1.2E2,1.22E2,2.9E1,2E1,8E0,6.2E1,1.9E1,3.3E1,9E0,7.6E1,4.4E1,1.03E2,1.9E1,5.6E1,6E0,1.8E1,5.8E1,4E0,9.9E1,6E0,1.3E1],"tree_param":{"num_deleted":"0","num_feature":"23","num_nodes":"31","size_leaf_vector":"1"}},{"base_weights":[4.33841E-3,-6.326081E-2,1.86489E-1,-5.5342284E-3,-3.21184E-2,8.425699E-2,7.364694E-3,-8.770185E-2,1.1353336E-3,3.1978497E-3,-1.7141177E-3,-1.0703263E-1,1.9703764E-2,-3.1904195E-2,5.712741E-2,-3.9613354E-3,-1.2876461E-3,1.894626E-3,-7.6143286E-4,5.724711E-4,-1.1199053E-3,3.0828293E-3,-4.4014252E-4],"categories":[],"categories_nodes":[],"categories_segments":[],"categories_sizes":[],"default_left":[0,0,0,0,0,0,0,0,0,0,0,0,0,0,0,0,0,0,0,0,0,0,0],"id":13,"left_children":[1,3,5,-1,7,9,-1,11,13,-1,-1,15,17,19,21,-1,-1,-1,-1,-1,-1,-1,-1],"loss_changes":[5.35686E0,1.2845451E0,7.4394846E-1,0E0,4.976002E-1,3.45526E-1,0E0,2.2751093E-1,3.4277382E-1,0E0,0E0,1.2820935E-1,6.784141E-2,5.808682E-2,2.8373903E-1,0E0,0E0,0E0,0E0,0E0,0E0,0E0,0E0],"parents":[2147483647,0,0,1,1,2,2,4,4,5,5,7,7,8,8,11,11,12,12,13,13,14,14],"right_children":[2,4,6,-1,8,10,-1,12,14,-1,-1,16,18,20,22,-1,-1,-1,-1,-1,-1,-1,-1],"split_conditions":[9.8E1,5.8E1,1.13E2,-5.5342284E-3,1E0,8.829E0,7.364694E-3,4E0,8.2E1,3.1978497E-3,-1.7141177E-3,6.12448E-1,4.3185288E-1,2.4825075E-1,2.011E0,-3.9613354E-3,-1.2876461E-3,1.894626E-3,-7.6143286E-4,5.724711E-4,-1.1199053E-3,3.0828293E-3,-4.4014252E-4],"split_indices":[0,0,0,0,20,8,0,3,0,0,0,13,12,12,8,0,0,0,0,0,0,0,0],"split_type":[0,0,0,0,0,0,0,0,0,0,0,0,0,0,0,0,0,0,0,0,0,0,0],"sum_hessian":[4.18E2,3.09E2,1.09E2,4.9E1,2.6E2,5.5E1,5.4E1,9.2E1,1.68E2,4.7E1,8E0,7.8E1,1.4E1,1.08E2,6E1,4.2E1,3.6E1,5E0,9E0,1.3E1,9.5E1,3.2E1,2.8E1],"tree_param":{"num_deleted":"0","num_feature":"23","num_nodes":"23","size_leaf_vector":"1"}},{"base_weights":[2.4959294E-3,-7.0152774E-2,1.8569236E-1,-5.5053965E-3,-4.3713607E-2,7.420952E-2,2.639051E-1,-2.2923918E-2,-1.24723576E-1,-1.4952846E-3,2.748293E-3,1.3428644E-3,7.737383E-3,-1.3159412E-3,3.2159396E-2,-1.5655845E-1,2.5411353E-2,-7.429725E-4,1.92474E-3,-4.3714364E-4,-4.8691533E-3,-8.7673555E-4,1.6131554E-3],"categories":[],"categories_nodes":[],"categories_segments":[],"categories_sizes":[],"default_left":[0,0,0,0,0,0,0,0,0,0,0,0,0,0,0,0,0,0,0,0,0,0,0],"id":14,"left_children":[1,3,5,-1,7,9,11,13,15,-1,-1,-1,-1,-1,17,19,21,-1,-1,-1,-1,-1,-1],"loss_changes":[5.7525125E0,9.6889794E-1,8.9916325E-1,0E0,4.258461E-1,2.4245688E-1,8.9579105E-2,3.1303263E-1,2.8662843E-1,0E0,0E0,0E0,0E0,0E0,1.7634034E-1,9.108925E-2,4.679032E-2,0E0,0E0,0E0,0E0,0E0,0E0],"parents":[2147483647,0,0,1,1,2,2,4,4,5,5,6,6,7,7,8,8,14,14,15,15,16,16],"right_children":[2,4,6,-1,8,10,12,14,16,-1,-1,-1,-1,-1,18,20,22,-1,-1,-1,-1,-1,-1],"split_conditions":[9.8E1,5.6E1,1.13E2,-5.5053965E-3,1E0,2.3638166E-1,2E0,8.2E1,2.00001E0,-1.4952846E-3,2.748293E-3,1.3428644E-3,7.737383E-3,-1.3159412E-3,1.62E-1,1.32E-1,7E1,-7.429725E-4,1.92474E-3,-4.3714364E-4,-4.8691533E-3,-8.7673555E-4,1.6131554E-3],"split_indices":[0,0,0,0,22,12,2,0,5,0,0,0,0,0,9,9,0,0,0,0,0,0,0],"split_type":[0,0,0,0,0,0,0,0,0,0,0,0,0,0,0,0,0,0,0,0,0,0,0],"sum_hessian":[4.15E2,3.01E2,1.14E2,4.2E1,2.59E2,5.4E1,6E1,2.15E2,4.4E1,7E0,4.7E1,6E0,5.4E1,1.5E2,6.5E1,3.6E1,8E0,2.6E1,3.9E1,6E0,3E1,3E0,5E0],"tree_param":{"num_deleted":"0","num_feature":"23","num_nodes":"23","size_leaf_vector":"1"}},{"base_weights":[1.0766544E-3,-7.481356E-2,1.0358506E-1,-3.8459685E-2,-1.9233622E-1,5.24401E-3,1.5895803E-1,-6.319822E-2,1.9584224E-2,-5.971304E-3,1.7043883E-5,-1.4373651E-2,2.5265685E-3,5.0188946E-3,-1.5178995E-3,-2.0426111E-3,2.5094997E-2,6.629228E-2,-1.1062139E-3,-5.0822385E-2,1.6699994E-2,1.7435141E-3,-8.288448E-4,2.3372401E-3,-2.6077154E-4,-2.1723702E-3,1.1227847E-3,-3.6634624E-4,1.3372309E-3],"categories":[],"categories_nodes":[],"categories_segments":[],"categories_sizes":[],"default_left":[0,0,0,0,0,0,0,0,0,0,0,0,0,0,0,0,0,0,0,0,0,0,0,0,0,0,0,0,0],"id":15,"left_children":[1,3,5,7,9,11,13,15,17,-1,-1,19,-1,-1,-1,-1,21,23,-1,25,27,-1,-1,-1,-1,-1,-1,-1,-1],"loss_changes":[3.4880784E0,1.0364332E0,1.0310595E0,3.0905315E-1,2.51467E-1,1.4171754E-1,6.3798094E-1,1.4841247E-1,2.1325144E-1,0E0,0E0,8.749299E-2,0E0,0E0,0E0,0E0,6.090362E-2,6.254183E-2,0E0,1.13379225E-1,4.732405E-2,0E0,0E0,0E0,0E0,0E0,0E0,0E0,0E0],"parents":[2147483647,0,0,1,1,2,2,3,3,4,4,5,5,6,6,7,7,8,8,11,11,16,16,17,17,19,19,20,20],"right_children":[2,4,6,8,10,12,14,16,18,-1,-1,20,-1,-1,-1,-1,22,24,-1,26,28,-1,-1,-1,-1,-1,-1,-1,-1],"split_conditions":[3E0,1E0,2E0,2E0,8E0,4E0,8.913E0,6E0,1.973E0,-5.971304E-3,1.7043883E-5,1E0,2.5265685E-3,5.0188946E-3,-1.5178995E-3,-2.0426111E-3,2.14E0,4.15E-1,-1.1062139E-3,3.11E-1,5E0,1.7435141E-3,-8.288448E-4,2.3372401E-3,-2.6077154E-4,-2.1723702E-3,1.1227847E-3,-3.6634624E-4,1.3372309E-3],"split_indices":[1,22,2,2,3,1,8,3,8,0,0,5,0,0,0,0,8,10,0,10,3,0,0,0,0,0,0,0,0],"split_type":[0,0,0,0,0,0,0,0,0,0,0,0,0,0,0,0,0,0,0,0,0,0,0,0,0,0,0,0,0],"sum_hessian":[4.31E2,2.49E2,1.82E2,1.99E2,5E1,6.9E1,1.13E2,1.39E2,6E1,4.4E1,6E0,6.2E1,7E0,1.04E2,9E0,1.26E2,1.3E1,3.3E1,2.7E1,2.6E1,3.6E1,7E0,6E0,2.6E1,7E0,2.1E1,5E0,2.1E1,1.5E1],"tree_param":{"num_deleted":"0","num_feature":"23","num_nodes":"29","size_leaf_vector":"1"}},{"base_weights":[-7.6800077E-3,-7.4393295E-2,8.8602066E-2,-1.3494322E-1,-3.54049E-2,1.2579609E-2,1.298102E-1,-1.5834554E-1,9.4095897E-4,-2.146956E-3,-1.8392062E-2,-3.5578255E-2,4.007065E-3,8.3830565E-2,4.537173E-3,-1.8991764E-3,-5.1296167E-3,-4.4785496E-3,-7.205752E-2,3.892165E-4,-6.642898E-2,1.2069202E-1,-3.6013743E-4,-1.4563737E-3,1.9887587E-4,-2.548094E-3,2.9115408E-4,4.252224E-4,-3.350955E-3,4.232127E-3,1.1816726E-3],"categories":[],"categories_nodes":[],"categories_segments":[],"categories_sizes":[],"default_left":[0,0,0,0,0,0,0,0,0,0,0,0,0,0,0,0,0,0,0,0,0,0,0,0,0,0,0,0,0,0,0],"id":16,"left_children":[1,3,5,7,9,11,13,15,-1,-1,17,19,-1,21,-1,-1,-1,23,25,-1,27,29,-1,-1,-1,-1,-1,-1,-1,-1,-1],"loss_changes":[2.7211032E0,5.477574E-1,5.298294E-1,4.206208E-1,1.036828E-1,4.9173182E-1,5.0996304E-2,8.785939E-2,0E0,0E0,9.247674E-2,9.7868964E-2,0E0,2.4445787E-1,0E0,0E0,0E0,6.479968E-2,4.9624756E-2,0E0,1.8210015E-1,6.0477436E-2,0E0,0E0,0E0,0E0,0E0,0E0,0E0,0E0,0E0],"parents":[2147483647,0,0,1,1,2,2,3,3,4,4,5,5,6,6,7,7,10,10,11,11,13,13,17,17,18,18,20,20,21,21],"right_children":[2,4,6,8,10,12,14,16,-1,-1,18,20,-1,22,-1,-1,-1,24,26,-1,28,30,-1,-1,-1,-1,-1,-1,-1,-1,-1],"split_conditions":[2E0,1E0,1E0,4E0,2E0,3E0,3E0,2.77E-1,9.4095897E-4,-2.146956E-3,4E0,2.608E0,4.007065E-3,2E0,4.537173E-3,-1.8991764E-3,-5.1296167E-3,8.6E-2,3.09E-1,3.892165E-4,1E0,1.809E0,-3.6013743E-4,-1.4563737E-3,1.9887587E-4,-2.548094E-3,2.9115408E-4,4.252224E-4,-3.350955E-3,4.232127E-3,1.1816726E-3],"split_indices":[2,20,20,11,3,2,3,10,0,0,11,8,0,3,0,0,0,10,10,0,6,8,0,0,0,0,0,0,0,0,0],"split_type":[0,0,0,0,0,0,0,0,0,0,0,0,0,0,0,0,0,0,0,0,0,0,0,0,0,0,0,0,0,0,0],"sum_hessian":[4.06E2,2.41E2,1.65E2,8.6E1,1.55E2,6.2E1,1.03E2,7.6E1,1E1,3.6E1,1.19E2,5E1,1.2E1,5.6E1,4.7E1,2.4E1,5.2E1,1.02E2,1.7E1,2.1E1,2.9E1,3.9E1,1.7E1,1.4E1,8.8E1,1.3E1,4E0,1.4E1,1.5E1,2.2E1,1.7E1],"tree_param":{"num_deleted":"0","num_feature":"23","num_nodes":"31","size_leaf_vector":"1"}},{"base_weights":[5.005473E-3,-7.187793E-2,1.106913E-1,-4.1885883E-2,-1.5291257E-1,1.4397797E-1,-6.7351304E-2,-1.0535808E-1,-1.0552293E-2,-1.8374172E-1,-2.815562E-4,1.2592904E-3,1.5973E-1,-2.996246E-3,1.4048573E-4,-3.5810403E-3,-9.67499E-4,-8.366168E-4,2.8036056E-2,-5.4664123E-3,-6.4878655E-4,4.629206E-3,7.889465E-4,-8.745646E-4,1.2107744E-3],"categories":[],"categories_nodes":[],"categories_segments":[],"categories_sizes":[],"default_left":[0,0,0,0,0,0,0,0,0,0,0,0,0,0,0,0,0,0,0,0,0,0,0,0,0],"id":17,"left_children":[1,3,5,7,9,11,13,15,17,19,-1,-1,21,-1,-1,-1,-1,-1,23,-1,-1,-1,-1,-1,-1],"loss_changes":[3.5283103E0,5.5582786E-1,1.1672301E0,3.794386E-1,2.685145E-1,1.8073869E-1,1.05906755E-1,6.548637E-2,1.1314814E-1,6.612277E-2,0E0,0E0,7.129693E-2,0E0,0E0,0E0,0E0,0E0,5.934586E-2,0E0,0E0,0E0,0E0,0E0,0E0],"parents":[2147483647,0,0,1,1,2,2,3,3,4,4,5,5,6,6,7,7,8,8,9,9,12,12,18,18],"right_children":[2,4,6,8,10,12,14,16,18,20,-1,-1,22,-1,-1,-1,-1,-1,24,-1,-1,-1,-1,-1,-1],"split_conditions":[3E0,2.683E0,6.968E0,2E0,3E0,1E0,1E0,2.09E0,1E0,1.3616E1,-2.815562E-4,1.2592904E-3,1E0,-2.996246E-3,1.4048573E-4,-3.5810403E-3,-9.67499E-4,-8.366168E-4,3.9E-1,-5.4664123E-3,-6.4878655E-4,4.629206E-3,7.889465E-4,-8.745646E-4,1.2107744E-3],"split_indices":[1,8,8,1,3,5,21,8,6,8,0,0,16,0,0,0,0,0,8,0,0,0,0,0,0],"split_type":[0,0,0,0,0,0,0,0,0,0,0,0,0,0,0,0,0,0,0,0,0,0,0,0,0],"sum_hessian":[4.17E2,2.43E2,1.74E2,1.87E2,5.6E1,1.48E2,2.6E1,5.5E1,1.32E2,4.4E1,1.2E1,2.5E1,1.23E2,1.4E1,1.2E1,3.6E1,1.9E1,8.9E1,4.3E1,3.9E1,5E0,1.15E2,8E0,7E0,3.6E1],"tree_param":{"num_deleted":"0","num_feature":"23","num_nodes":"25","size_leaf_vector":"1"}},{"base_weights":[-8.355846E-3,-7.214912E-2,7.461284E-2,-1.2635528E-1,-3.8513836E-2,1.0328044E-1,-7.981369E-2,-8.2342796E-2,-5.4871375E-3,-5.4660793E-2,3.2935187E-2,3.7693094E-2,1.6085322E-1,-1.0304831E-1,1.9032852E-4,-5.397598E-4,-2.8689257E-3,-2.8784858E-2,-8.0766395E-2,1.8604657E-3,-7.0186174E-3,-1.0216495E-3,6.6170536E-2,-1.5334568E-4,1.7366745E-1,-3.7680015E-3,-9.325525E-3,1.3995399E-4,-1.2884812E-3,-2.7062763E-3,1.573019E-4,-1.3272126E-3,2.0466787E-3,2.5953222E-3,-8.546619E-5,6.077757E-3,2.5461917E-3,1.2474307E-3,-1.5908352E-3],"categories":[],"categories_nodes":[],"categories_segments":[],"categories_sizes":[],"default_left":[0,0,0,0,0,0,0,0,0,0,0,0,0,0,0,0,0,0,0,0,0,0,0,0,0,0,0,0,0,0,0,0,0,0,0,0,0,0,0],"id":18,"left_children":[1,3,5,7,9,11,13,15,-1,17,19,21,23,25,-1,-1,-1,27,29,-1,31,-1,33,-1,35,-1,37,-1,-1,-1,-1,-1,-1,-1,-1,-1,-1,-1,-1],"loss_changes":[2.3899992E0,4.2188954E-1,9.4256437E-1,1.5005243E-1,2.1146852E-1,5.87867E-1,7.8090355E-2,7.715896E-2,0E0,7.539329E-2,5.3801656E-2,2.1326967E-1,1.9543052E-1,7.5660676E-2,0E0,0E0,0E0,5.2126445E-2,9.803802E-2,0E0,1.112829E-1,0E0,1.3111672E-1,0E0,1.2558627E-1,0E0,6.5484375E-2,0E0,0E0,0E0,0E0,0E0,0E0,0E0,0E0,0E0,0E0,0E0,0E0],"parents":[2147483647,0,0,1,1,2,2,3,3,4,4,5,5,6,6,7,7,9,9,10,10,11,11,12,12,13,13,17,17,18,18,20,20,22,22,24,24,26,26],"right_children":[2,4,6,8,10,12,14,16,-1,18,20,22,24,26,-1,-1,-1,28,30,-1,32,-1,34,-1,36,-1,38,-1,-1,-1,-1,-1,-1,-1,-1,-1,-1,-1,-1],"split_conditions":[2E0,2E0,4.471E0,3.395E0,6E0,3E0,1E0,4.4690847E-1,-5.4871375E-3,1.83E-1,8.3278984E-1,4.8269308E-1,3.9E-1,3.127E0,1.9032852E-4,-5.397598E-4,-2.8689257E-3,5.0717753E-1,2.1685753E0,1.8604657E-3,1.8847852E0,-1.0216495E-3,3.39E-1,-1.5334568E-4,2.119E0,-3.7680015E-3,1.7762E1,1.3995399E-4,-1.2884812E-3,-2.7062763E-3,1.573019E-4,-1.3272126E-3,2.0466787E-3,2.5953222E-3,-8.546619E-5,6.077757E-3,2.5461917E-3,1.2474307E-3,-1.5908352E-3],"split_indices":[2,3,8,8,3,3,21,12,0,9,12,12,8,10,0,0,0,12,12,0,12,0,10,0,8,0,8,0,0,0,0,0,0,0,0,0,0,0,0],"split_type":[0,0,0,0,0,0,0,0,0,0,0,0,0,0,0,0,0,0,0,0,0,0,0,0,0,0,0,0,0,0,0,0,0,0,0,0,0,0,0],"sum_hessian":[4.34E2,2.46E2,1.88E2,8.5E1,1.61E2,1.61E2,2.7E1,6.4E1,2.1E1,1.33E2,2.8E1,8.2E1,7.9E1,2E1,7E0,2E1,4.4E1,7.6E1,5.7E1,1.2E1,1.6E1,2.2E1,6E1,6E0,7.3E1,1.2E1,8E0,2.8E1,4.8E1,4.7E1,1E1,1.3E1,3E0,4.1E1,1.9E1,3.8E1,3.5E1,4E0,4E0],"tree_param":{"num_deleted":"0","num_feature":"23","num_nodes":"39","size_leaf_vector":"1"}},{"base_weights":[-1.3031336E-3,-5.7366166E-2,1.5651523E-1,-4.0955883E-3,-2.3033243E-2,6.9538005E-2,2.2916487E-1,-7.387768E-2,-9.3687116E-4,1.0324905E-1,-1.266252E-3,1.0716175E-4,6.7026783E-3,-1.0292963E-1,1.9975698E-2,-3.475976E-2,5.760746E-2,1.1435934E-1,-2.6147325E-5,-1.3341802E-3,-3.8349754E-3,1.6270928E-3,-9.5763867E-4,3.07669E-4,-1.2228604E-3,-2.4360808E-4,2.160365E-3,6.760779E-4,3.6934344E-3],"categories":[],"categories_nodes":[],"categories_segments":[],"categories_sizes":[],"default_left":[0,0,0,0,0,0,0,0,0,0,0,0,0,0,0,0,0,0,0,0,0,0,0,0,0,0,0,0,0],"id":19,"left_children":[1,3,5,-1,7,9,11,13,15,17,-1,-1,-1,19,21,23,25,27,-1,-1,-1,-1,-1,-1,-1,-1,-1,-1,-1],"loss_changes":[3.8711112E0,9.6418893E-1,5.8584905E-1,0E0,2.731262E-1,2.9175696E-1,1.440723E-1,2.1892405E-1,3.7126112E-1,6.2039793E-2,0E0,0E0,0E0,5.2841485E-2,6.91405E-2,5.401054E-2,9.699464E-2,5.0336003E-2,0E0,0E0,0E0,0E0,0E0,0E0,0E0,0E0,0E0,0E0,0E0],"parents":[2147483647,0,0,1,1,2,2,4,4,5,5,6,6,7,7,8,8,9,9,13,13,14,14,15,15,16,16,17,17],"right_children":[2,4,6,-1,8,10,12,14,16,18,-1,-1,-1,20,22,24,26,28,-1,-1,-1,-1,-1,-1,-1,-1,-1,-1,-1],"split_conditions":[9.8E1,6.5E1,1.13E2,-4.0955883E-3,6.349619E-1,1E0,2.609732E-1,3E0,8.1E1,7E0,-1.266252E-3,1.0716175E-4,6.7026783E-3,1E0,5.378171E-1,6.633883E-1,6.6209096E-1,6.239236E-1,-2.6147325E-5,-1.3341802E-3,-3.8349754E-3,1.6270928E-3,-9.5763867E-4,3.07669E-4,-1.2228604E-3,-2.4360808E-4,2.160365E-3,6.760779E-4,3.6934344E-3],"split_indices":[0,0,0,0,13,22,13,3,0,3,0,0,0,22,13,13,13,13,0,0,0,0,0,0,0,0,0,0,0],"split_type":[0,0,0,0,0,0,0,0,0,0,0,0,0,0,0,0,0,0,0,0,0,0,0,0,0,0,0,0,0],"sum_hessian":[4.2E2,3.14E2,1.06E2,7.9E1,2.35E2,5.6E1,5E1,6.5E1,1.7E2,4.4E1,1.2E1,3E0,4.7E1,4.9E1,1.6E1,1.1E2,6E1,3.9E1,5E0,2.7E1,2.2E1,9E0,7E0,1.8E1,9.2E1,1.5E1,4.5E1,1E1,2.9E1],"tree_param":{"num_deleted":"0","num_feature":"23","num_nodes":"29","size_leaf_vector":"1"}},{"base_weights":[3.8441683E-3,-5.3133927E-2,1.5194358E-1,-4.7043078E-3,-2.7731663E-2,7.4195206E-2,6.085183E-3,-4.227233E-3,-9.440654E-2,1.0271953E-1,-1.4721641E-3,-9.188636E-4,6.203858E-2,-1.2929483E-1,-6.031421E-4,3.6450303E-3,4.3230152E-4,2.7430379E-3,4.0975073E-4,-3.8554887E-3,2.6445852E-5],"categories":[],"categories_nodes":[],"categories_segments":[],"categories_sizes":[],"default_left":[0,0,0,0,0,0,0,0,0,0,0,0,0,0,0,0,0,0,0,0,0],"id":20,"left_children":[1,3,5,-1,7,9,-1,11,13,15,-1,-1,17,19,-1,-1,-1,-1,-1,-1,-1],"loss_changes":[3.7891762E0,9.141224E-1,5.040436E-1,0E0,4.3007606E-1,3.035415E-1,0E0,4.251728E-1,1.5748489E-1,1.3128382E-1,0E0,0E0,1.04106545E-1,5.6921065E-2,0E0,0E0,0E0,0E0,0E0,0E0,0E0],"parents":[2147483647,0,0,1,1,2,2,4,4,5,5,7,7,8,8,9,9,12,12,13,13],"right_children":[2,4,6,-1,8,10,-1,12,14,16,-1,-1,18,20,-1,-1,-1,-1,-1,-1,-1],"split_conditions":[9.8E1,5.8E1,1.13E2,-4.7043078E-3,2.75E0,1E0,6.085183E-3,8.1E1,3E0,2.302E0,-1.4721641E-3,-9.188636E-4,9E1,9.1E1,-6.031421E-4,3.6450303E-3,4.3230152E-4,2.7430379E-3,4.0975073E-4,-3.8554887E-3,2.6445852E-5],"split_indices":[0,0,0,0,8,22,0,0,1,8,0,0,0,0,0,0,0,0,0,0,0],"split_type":[0,0,0,0,0,0,0,0,0,0,0,0,0,0,0,0,0,0,0,0,0],"sum_hessian":[4.32E2,3.16E2,1.16E2,4.8E1,2.68E2,6.2E1,5.4E1,2.05E2,6.3E1,5.2E1,1E1,1.46E2,5.9E1,3.8E1,2.5E1,3.6E1,1.6E1,2.8E1,3.1E1,3.5E1,3E0],"tree_param":{"num_deleted":"0","num_feature":"23","num_nodes":"21","size_leaf_vector":"1"}},{"base_weights":[-1.9979922E-4,-7.101005E-2,9.8610274E-2,-3.9950266E-2,-1.6551274E-1,6.286368E-2,2.1600659E-1,-8.0648474E-2,-1.9890305E-2,-5.0678495E-3,2.4731923E-4,3.1759974E-2,3.0076078E-3,6.4115063E-3,2.6411354E-4,4.149086E-4,-2.6188125E-3,-1.1205799E-3,-2.1110377E-3,5.0009683E-2,-4.194156E-2,3.7078865E-4,-1.1530848E-3,-6.312819E-4,2.062219E-3,8.082075E-4,-2.1280518E-3],"categories":[],"categories_nodes":[],"categories_segments":[],"categories_sizes":[],"default_left":[0,0,0,1,0,0,0,0,0,0,0,0,0,0,0,0,0,0,0,0,0,0,0,0,0,0,0],"id":21,"left_children":[1,3,5,7,9,11,13,15,17,-1,-1,19,-1,-1,-1,-1,-1,-1,21,23,25,-1,-1,-1,-1,-1,-1],"loss_changes":[3.1793878E0,7.192409E-1,6.776762E-1,1.579706E-1,1.9427001E-1,1.9142091E-1,1.003288E-1,9.759346E-2,5.446724E-2,0E0,0E0,1.604331E-1,0E0,0E0,0E0,0E0,0E0,0E0,5.9800185E-2,1.6964142E-1,8.221745E-2,0E0,0E0,0E0,0E0,0E0,0E0],"parents":[2147483647,0,0,1,1,2,2,3,3,4,4,5,5,6,6,7,7,8,8,11,11,18,18,19,19,20,20],"right_children":[2,4,6,8,10,12,14,16,18,-1,-1,20,-1,-1,-1,-1,-1,-1,22,24,26,-1,-1,-1,-1,-1,-1],"split_conditions":[3E0,1E0,4E0,1E0,4.633E0,1E0,1E0,6.3E-2,1.44E-1,-5.0678495E-3,2.4731923E-4,2.96E-1,3.0076078E-3,6.4115063E-3,2.6411354E-4,4.149086E-4,-2.6188125E-3,-1.1205799E-3,4.04E-1,1E0,1E0,3.7078865E-4,-1.1530848E-3,-6.312819E-4,2.062219E-3,8.082075E-4,-2.1280518E-3],"split_indices":[1,22,1,5,9,6,21,9,9,0,0,9,0,0,0,0,0,0,9,5,5,0,0,0,0,0,0],"split_type":[0,0,0,0,0,0,0,0,0,0,0,0,0,0,0,0,0,0,0,0,0,0,0,0,0,0,0],"sum_hessian":[4.37E2,2.56E2,1.81E2,2.02E2,5.4E1,1.49E2,3.2E1,5.8E1,1.44E2,4.9E1,5E0,9.7E1,5.2E1,2.9E1,3E0,7E0,5.1E1,6.2E1,8.2E1,8E1,1.7E1,6.3E1,1.9E1,2E1,6E1,6E0,1.1E1],"tree_param":{"num_deleted":"0","num_feature":"23","num_nodes":"27","size_leaf_vector":"1"}},{"base_weights":[4.1429777E-4,-3.0943906E-2,6.088565E-2,-9.3359515E-2,1.1541915E-2,3.1063579E-2,3.279868E-3,-2.5497288E-2,-1.2501965E-1,-9.596949E-3,7.224881E-2,4.410077E-2,-1.3530573E-3,-1.277567E-3,2.849029E-2,-1.386318E-1,1.773701E-4,-2.5410365E-2,1.4542411E-3,7.2470994E-4,3.150756E-3,-2.1806587E-2,6.410906E-2,1.8129396E-3,-7.282273E-4,-4.207681E-3,-9.182225E-4,-1.5624223E-4,-1.8116568E-3,6.2591064E-4,-1.5108916E-3,2.041818E-3,-1.1993416E-3],"categories":[],"categories_nodes":[],"categories_segments":[],"categories_sizes":[],"default_left":[0,0,0,0,0,0,0,0,0,0,0,0,0,0,0,0,0,0,0,0,0,1,0,0,0,0,0,0,0,0,0,0,0],"id":22,"left_children":[1,3,5,7,9,11,-1,13,15,17,19,21,-1,-1,23,25,-1,27,-1,-1,-1,29,31,-1,-1,-1,-1,-1,-1,-1,-1,-1,-1],"loss_changes":[8.3694357E-1,7.803271E-1,2.2370756E-1,2.2716308E-1,2.3797959E-1,1.335969E-1,0E0,6.4970106E-2,1.4855766E-1,1.5004219E-1,6.442167E-2,1.4367974E-1,0E0,0E0,5.225952E-2,5.0880432E-2,0E0,8.993598E-2,0E0,0E0,0E0,5.3316593E-2,1.0518691E-1,0E0,0E0,0E0,0E0,0E0,0E0,0E0,0E0,0E0,0E0],"parents":[2147483647,0,0,1,1,2,2,3,3,4,4,5,5,7,7,8,8,9,9,10,10,11,11,14,14,15,15,17,17,21,21,22,22],"right_children":[2,4,6,8,10,12,-1,14,16,18,20,22,-1,-1,24,26,-1,28,-1,-1,-1,30,32,-1,-1,-1,-1,-1,-1,-1,-1,-1,-1],"split_conditions":[4E0,1E0,1E0,2.79E-1,1E0,7.677577E-1,3.279868E-3,2.06E-1,7.006E0,7.3874384E-1,6.817706E-1,6.4337856E-1,-1.3530573E-3,-1.277567E-3,2E0,1E0,1.773701E-4,7.0888865E-1,1.4542411E-3,7.2470994E-4,3.150756E-3,1E0,5E0,1.8129396E-3,-7.282273E-4,-4.207681E-3,-9.182225E-4,-1.5624223E-4,-1.8116568E-3,6.2591064E-4,-1.5108916E-3,2.041818E-3,-1.1993416E-3],"split_indices":[3,20,6,10,6,13,0,10,10,13,13,13,0,0,3,17,0,13,0,0,0,5,11,0,0,0,0,0,0,0,0,0,0],"split_type":[0,0,0,0,0,0,0,0,0,0,0,0,0,0,0,0,0,0,0,0,0,0,0,0,0,0,0,0,0,0,0,0,0],"sum_hessian":[4.24E2,2.82E2,1.42E2,1.1E2,1.72E2,1.02E2,4E1,4E1,7E1,1.33E2,3.9E1,9.1E1,1.1E1,3E1,1E1,6.3E1,7E0,1.1E2,2.3E1,2.5E1,1.4E1,2.1E1,7E1,5E0,5E0,5.3E1,1E1,8E1,3E1,1E1,1.1E1,6.7E1,3E0],"tree_param":{"num_deleted":"0","num_feature":"23","num_nodes":"33","size_leaf_vector":"1"}},{"base_weights":[-3.0582054E-3,-6.822809E-2,8.663851E-2,-4.204144E-2,-1.5024799E-1,1.13065235E-1,-6.485318E-2,-9.930815E-2,-1.3310474E-2,-1.8197061E-1,-1.3952828E-2,7.527196E-2,6.3215867E-3,-2.3999487E-3,5.831857E-4,-3.3966352E-3,-7.637404E-4,-3.5310294E-2,5.3132538E-2,2.4733628E-4,-5.4730074E-3,-1.2893404E-3,1.0601485E-3,-9.260114E-3,9.2195466E-2,-3.0115107E-4,-1.5803482E-3,1.9953127E-3,-4.4556806E-4,1.2521083E-3,-1.8106569E-3,-4.5148953E-4,2.7123098E-3],"categories":[],"categories_nodes":[],"categories_segments":[],"categories_sizes":[],"default_left":[0,0,0,0,0,0,0,0,0,0,0,0,0,0,0,0,0,0,0,0,0,0,0,0,0,0,0,0,0,0,0,0,0],"id":23,"left_children":[1,3,5,7,9,11,13,15,17,19,21,23,-1,-1,-1,-1,-1,25,27,-1,-1,-1,-1,29,31,-1,-1,-1,-1,-1,-1,-1,-1],"loss_changes":[2.6334069E0,5.048052E-1,8.233131E-1,3.334273E-1,2.3586452E-1,5.60236E-1,7.74239E-2,8.266735E-2,2.3513609E-1,1.478802E-1,5.0179794E-2,2.0306581E-1,0E0,0E0,0E0,0E0,0E0,5.6411266E-2,6.212616E-2,0E0,0E0,0E0,0E0,1.1827851E-1,7.846552E-2,0E0,0E0,0E0,0E0,0E0,0E0,0E0,0E0],"parents":[2147483647,0,0,1,1,2,2,3,3,4,4,5,5,6,6,7,7,8,8,9,9,10,10,11,11,17,17,18,18,23,23,24,24],"right_children":[2,4,6,8,10,12,14,16,18,20,22,24,-1,-1,-1,-1,-1,26,28,-1,-1,-1,-1,30,32,-1,-1,-1,-1,-1,-1,-1,-1],"split_conditions":[3E0,2.957E0,6.968E0,2E0,3E0,4E0,6.0521895E-1,2.09E0,1.5567079E0,5.3250365E-2,8.166E0,1E0,6.3215867E-3,-2.3999487E-3,5.831857E-4,-3.3966352E-3,-7.637404E-4,1.57E-1,2.5760653E0,2.4733628E-4,-5.4730074E-3,-1.2893404E-3,1.0601485E-3,7.184023E-1,1E0,-3.0115107E-4,-1.5803482E-3,1.9953127E-3,-4.4556806E-4,1.2521083E-3,-1.8106569E-3,-4.5148953E-4,2.7123098E-3],"split_indices":[1,8,8,1,3,1,13,8,12,12,8,5,0,0,0,0,0,9,12,0,0,0,0,13,4,0,0,0,0,0,0,0,0],"split_type":[0,0,0,0,0,0,0,0,0,0,0,0,0,0,0,0,0,0,0,0,0,0,0,0,0,0,0,0,0,0,0,0,0],"sum_hessian":[4.33E2,2.52E2,1.81E2,2.01E2,5.1E1,1.56E2,2.5E1,6E1,1.41E2,3.9E1,1.2E1,1.28E2,2.8E1,2E1,5E0,4.1E1,1.9E1,1.09E2,3.2E1,3E0,3.6E1,8E0,4E0,2.2E1,1.06E2,5.7E1,5.2E1,2.5E1,7E0,1.2E1,1E1,4E0,1.02E2],"tree_param":{"num_deleted":"0","num_feature":"23","num_nodes":"33","size_leaf_vector":"1"}},{"base_weights":[2.3859632E-3,-5.5697795E-2,8.229506E-2,-2.7185133E-2,-1.5509681E-1,4.800254E-2,1.9478212E-1,-1.991879E-3,-6.7958576E-3,-1.7148802E-1,5.3185486E-4,-2.890275E-2,7.0378006E-2,5.76268E-3,2.6975325E-4,-2.9684247E-2,3.8110316E-2,-5.5643884E-3,-7.514327E-4,-1.5013902E-3,2.6893342E-2,9.7254915E-3,9.499117E-2,8.6286943E-4,-9.987203E-4,1.6695148E-3,-9.499685E-4,-1.6297583E-3,2.6537697E-3,-6.080259E-4,1.58892E-3,3.3613201E-3,2.61686E-4],"categories":[],"categories_nodes":[],"categories_segments":[],"categories_sizes":[],"default_left":[0,0,0,1,0,0,0,0,0,0,0,0,0,0,0,0,0,0,0,0,0,0,0,0,0,0,0,0,0,0,0,0,0],"id":24,"left_children":[1,3,5,7,9,11,13,-1,15,17,-1,19,21,-1,-1,23,25,-1,-1,-1,27,29,31,-1,-1,-1,-1,-1,-1,-1,-1,-1,-1],"loss_changes":[2.1039627E0,7.0768094E-1,6.540475E-1,1.8980618E-1,1.9053471E-1,2.8911075E-1,7.612884E-2,0E0,1.7090073E-1,1.6856754E-1,0E0,7.0834845E-2,1.7803061E-1,0E0,0E0,5.041875E-2,1.0725513E-1,0E0,0E0,0E0,1.5782909E-1,7.913634E-2,1.8300706E-1,0E0,0E0,0E0,0E0,0E0,0E0,0E0,0E0,0E0,0E0],"parents":[2147483647,0,0,1,1,2,2,3,3,4,4,5,5,6,6,8,8,9,9,11,11,12,12,15,15,16,16,20,20,21,21,22,22],"right_children":[2,4,6,8,10,12,14,-1,16,18,-1,20,22,-1,-1,24,26,-1,-1,-1,28,30,32,-1,-1,-1,-1,-1,-1,-1,-1,-1,-1],"split_conditions":[3E0,1E0,4E0,1E0,6.858E0,1E0,1E0,-1.991879E-3,1.4631922E0,2E0,5.3185486E-4,3.11E-1,6.382346E-1,5.76268E-3,2.6975325E-4,7.1E-2,2.5760653E0,-5.5643884E-3,-7.514327E-4,-1.5013902E-3,5.0803727E-1,2.00001E0,1.4868109E0,8.6286943E-4,-9.987203E-4,1.6695148E-3,-9.499685E-4,-1.6297583E-3,2.6537697E-3,-6.080259E-4,1.58892E-3,3.3613201E-3,2.61686E-4],"split_indices":[1,22,1,5,10,5,21,0,12,11,0,10,13,0,0,10,12,0,0,0,13,5,12,0,0,0,0,0,0,0,0,0,0],"split_type":[0,0,0,0,0,0,0,0,0,0,0,0,0,0,0,0,0,0,0,0,0,0,0,0,0,0,0,0,0,0,0,0,0],"sum_hessian":[4.36E2,2.54E2,1.82E2,2.06E2,4.8E1,1.49E2,3.3E1,5.8E1,1.48E2,4.4E1,4E0,3.3E1,1.16E2,3E1,3E0,1E2,4.8E1,3.4E1,1E1,2.3E1,1E1,3.7E1,7.9E1,6E0,9.4E1,3.8E1,1E1,5E0,5E0,2.5E1,1.2E1,5.8E1,2.1E1],"tree_param":{"num_deleted":"0","num_feature":"23","num_nodes":"33","size_leaf_vector":"1"}},{"base_weights":[8.896391E-4,-7.887123E-2,3.3022337E-2,-4.5141794E-2,-3.4378052E-3,6.271668E-2,-7.1262238E-3,-7.210788E-2,1.2440805E-2,-9.786826E-3,8.156959E-2,-2.2767054E-2,1.8709201E-3,-8.895643E-2,2.6494386E-2,1.8105585E-3,-4.789408E-4,6.8078126E-4,-1.7571822E-3,-6.234281E-4,2.3876806E-3,2.0025391E-2,-5.8630887E-2,3.9652197E-4,-2.9027115E-3,2.3336082E-3,-1.235883E-3,-9.061949E-4,1.1586266E-3,-7.3570345E-4,-3.1783402E-3],"categories":[],"categories_nodes":[],"categories_segments":[],"categories_sizes":[],"default_left":[0,0,0,0,0,0,0,0,0,0,0,0,0,0,0,0,0,0,0,0,0,0,0,0,0,0,0,0,0,0,0],"id":25,"left_children":[1,3,5,7,-1,9,11,13,15,17,19,21,-1,23,25,-1,-1,-1,-1,-1,-1,27,29,-1,-1,-1,-1,-1,-1,-1,-1],"loss_changes":[1.1751816E0,1.4937145E-1,3.9342773E-1,1.4559397E-1,0E0,2.6494765E-1,1.8377505E-1,1.2307125E-1,6.5404296E-2,9.8687604E-2,8.2062244E-2,2.0623624E-1,0E0,9.922448E-2,9.616636E-2,0E0,0E0,0E0,0E0,0E0,0E0,8.518228E-2,1.0182577E-1,0E0,0E0,0E0,0E0,0E0,0E0,0E0,0E0],"parents":[2147483647,0,0,1,1,2,2,3,3,5,5,6,6,7,7,8,8,9,9,10,10,11,11,13,13,14,14,21,21,22,22],"right_children":[2,4,6,8,-1,10,12,14,16,18,20,22,-1,24,26,-1,-1,-1,-1,-1,-1,28,30,-1,-1,-1,-1,-1,-1,-1,-1],"split_conditions":[1E0,2.743E0,2.14E0,2.09E0,-3.4378052E-3,4.17E-1,2.00001E0,4.8E-1,2.4825075E-1,3.2E-1,1.6952121E-1,1.81E-1,1.8709201E-3,7.1E-2,8.49E-1,1.8105585E-3,-4.789408E-4,6.8078126E-4,-1.7571822E-3,-6.234281E-4,2.3876806E-3,6.107213E-1,4.206E0,3.9652197E-4,-2.9027115E-3,2.3336082E-3,-1.235883E-3,-9.061949E-4,1.1586266E-3,-7.3570345E-4,-3.1783402E-3],"split_indices":[5,8,8,8,0,8,4,9,12,10,12,10,0,9,8,0,0,0,0,0,0,12,8,0,0,0,0,0,0,0,0],"split_type":[0,0,0,0,0,0,0,0,0,0,0,0,0,0,0,0,0,0,0,0,0,0,0,0,0,0,0,0,0,0,0],"sum_hessian":[4.41E2,1.23E2,3.18E2,8E1,4.3E1,1.8E2,1.38E2,5.3E1,2.7E1,3.8E1,1.42E2,1.19E2,1.9E1,4.6E1,7E0,6E0,2.1E1,2.6E1,1.2E1,4E0,1.38E2,5.6E1,6.3E1,6E0,4E1,3E0,4E0,1.5E1,4.1E1,4.8E1,1.5E1],"tree_param":{"num_deleted":"0","num_feature":"23","num_nodes":"31","size_leaf_vector":"1"}},{"base_weights":[2.613455E-3,-5.799708E-2,1.4688066E-1,-2.886579E-2,-1.4667153E-1,6.1183788E-2,2.0963812E-1,-6.1848257E-2,1.7899647E-2,-1.6350347E-1,1.687551E-4,8.456306E-2,-1.0616059E-3,6.0756584E-3,5.8917294E-4,-2.4055191E-3,-1.1064692E-3,1.6837851E-3,-5.5958796E-3,-3.599311E-2,-1.7552994E-1,3.4338742E-4,2.7732025E-3,-1.119363E-3,3.5537966E-4,-2.0351864E-3,9.5029804E-4,-5.1668845E-3,-6.899548E-4],"categories":[],"categories_nodes":[],"categories_segments":[],"categories_sizes":[],"default_left":[0,0,0,0,0,0,0,0,0,0,0,0,0,0,0,0,0,0,0,0,0,0,0,0,0,0,0,0,0],"id":26,"left_children":[1,3,5,7,9,11,13,15,17,19,-1,21,-1,-1,-1,-1,-1,-1,23,25,27,-1,-1,-1,-1,-1,-1,-1,-1],"loss_changes":[3.8053434E0,7.552762E-1,5.803187E-1,3.8248378E-1,1.9823122E-1,1.8295419E-1,7.3289394E-2,4.798585E-2,1.0969784E-1,4.712248E-2,0E0,5.0728172E-2,0E0,0E0,0E0,0E0,0E0,0E0,5.320369E-2,6.5169446E-2,4.835522E-2,0E0,0E0,0E0,0E0,0E0,0E0,0E0,0E0],"parents":[2147483647,0,0,1,1,2,2,3,3,4,4,5,5,6,6,7,7,8,8,9,9,11,11,18,18,19,19,20,20],"right_children":[2,4,6,8,10,12,14,16,18,20,-1,22,-1,-1,-1,-1,-1,-1,24,26,28,-1,-1,-1,-1,-1,-1,-1,-1],"split_conditions":[9.8E1,1E0,1.13E2,7.7E1,2.00001E0,1E0,3.127E0,6.5E1,1.56E-1,1.86E-1,1.687551E-4,3E0,-1.0616059E-3,6.0756584E-3,5.8917294E-4,-2.4055191E-3,-1.1064692E-3,1.6837851E-3,2.1E-1,1.34E-1,6.858E0,3.4338742E-4,2.7732025E-3,-1.119363E-3,3.5537966E-4,-2.0351864E-3,9.5029804E-4,-5.1668845E-3,-6.899548E-4],"split_indices":[0,22,0,0,4,22,10,0,10,10,0,1,0,0,0,0,0,0,10,10,10,0,0,0,0,0,0,0,0],"split_type":[0,0,0,0,0,0,0,0,0,0,0,0,0,0,0,0,0,0,0,0,0,0,0,0,0,0,0,0,0],"sum_hessian":[4.18E2,2.98E2,1.2E2,2.33E2,6.5E1,5.8E1,6.2E1,1.35E2,9.8E1,5.8E1,7E0,4.8E1,1E1,5.8E1,4E0,5.2E1,8.3E1,3E1,6.8E1,8E0,5E1,1.1E1,3.7E1,2E1,4.8E1,5E0,3E0,4.5E1,5E0],"tree_param":{"num_deleted":"0","num_feature":"23","num_nodes":"29","size_leaf_vector":"1"}},{"base_weights":[1.3877337E-3,-5.0789993E-2,1.4554922E-1,-1.1999986E-1,-1.0120958E-2,5.9249945E-2,1.850408E-1,-4.5516845E-3,-2.033861E-3,-6.2370386E-2,7.236162E-3,-2.1071284E-4,3.6837328E-3,1.4676455E-3,5.562914E-3,-2.3432188E-3,1.9189088E-3,-2.1025172E-2,4.9609106E-2,-1.1733547E-3,1.7561913E-5,-3.5853352E-4,2.2678706E-3],"categories":[],"categories_nodes":[],"categories_segments":[],"categories_sizes":[],"default_left":[0,0,0,0,0,0,0,0,0,0,0,0,0,0,0,0,0,0,0,0,0,0,0],"id":27,"left_children":[1,3,5,7,9,11,13,-1,-1,15,17,-1,-1,-1,-1,-1,-1,19,21,-1,-1,-1,-1],"loss_changes":[3.416996E0,9.285883E-1,3.1574154E-1,1.462822E-1,2.0322385E-1,2.5621694E-1,6.1429977E-2,0E0,0E0,2.0966512E-1,2.1591572E-1,0E0,0E0,0E0,0E0,0E0,0E0,5.0414186E-2,1.5177429E-1,0E0,0E0,0E0,0E0],"parents":[2147483647,0,0,1,1,2,2,3,3,4,4,5,5,6,6,9,9,10,10,17,17,18,18],"right_children":[2,4,6,8,10,12,14,-1,-1,16,18,-1,-1,-1,-1,-1,-1,20,22,-1,-1,-1,-1],"split_conditions":[9.8E1,6.8E1,6.3204324E-1,5.6E1,6.0521895E-1,1.22E2,2E0,-4.5516845E-3,-2.033861E-3,5E0,8.1E1,-2.1071284E-4,3.6837328E-3,1.4676455E-3,5.562914E-3,-2.3432188E-3,1.9189088E-3,7.5E1,6.6209096E-1,-1.1733547E-3,1.7561913E-5,-3.5853352E-4,2.2678706E-3],"split_indices":[0,0,13,0,13,0,2,0,0,11,0,0,0,0,0,0,0,0,13,0,0,0,0],"split_type":[0,0,0,0,0,0,0,0,0,0,0,0,0,0,0,0,0,0,0,0,0,0,0],"sum_hessian":[4.37E2,3.25E2,1.12E2,1.14E2,2.11E2,4.2E1,7E1,4.8E1,6.6E1,4.7E1,1.64E2,2.6E1,1.6E1,1.1E1,5.9E1,4.3E1,4E0,1.01E2,6.3E1,4.7E1,5.4E1,2.3E1,4E1],"tree_param":{"num_deleted":"0","num_feature":"23","num_nodes":"23","size_leaf_vector":"1"}},{"base_weights":[-1.2161464E-2,-7.6151244E-2,1.726087E-2,-1.0193618E-1,-4.241249E-2,-3.5572045E-2,4.227783E-2,-5.8032088E-2,-4.325873E-3,-1.2511918E-2,-1.8951452E-3,-7.491783E-2,7.534097E-2,6.473264E-2,1.0900817E-2,-1.93101E-3,9.2105434E-4,-2.9091027E-2,1.0715306E-3,-2.6099298E-2,-2.9783524E-3,-6.25267E-4,9.7340465E-2,7.488691E-2,5.3086146E-3,-2.2002732E-2,2.0192033E-3,-2.910965E-3,2.5245082E-4,-2.2068333E-3,2.3750425E-4,3.2935883E-3,-4.8339268E-4,2.4187563E-3,5.1530346E-4,-1.3528432E-3,1.2797876E-3,-1.2796712E-3,1.150387E-3],"categories":[],"categories_nodes":[],"categories_segments":[],"categories_sizes":[],"default_left":[0,0,0,0,0,0,0,0,0,0,0,0,0,0,0,0,0,0,0,0,0,0,0,0,0,0,0,0,0,0,0,0,0,0,0,0,0,0,0],"id":28,"left_children":[1,3,5,7,9,11,13,15,-1,17,-1,19,21,23,25,-1,-1,27,-1,29,-1,-1,31,33,35,37,-1,-1,-1,-1,-1,-1,-1,-1,-1,-1,-1,-1,-1],"loss_changes":[8.1297237E-1,8.0304444E-2,4.0789396E-1,8.712441E-2,4.9022123E-2,4.8857996E-1,1.3942823E-1,7.4282065E-2,0E0,4.7521822E-2,0E0,9.865746E-2,8.513798E-2,6.809604E-2,2.0994762E-1,0E0,0E0,1.1973039E-1,0E0,8.452753E-2,0E0,0E0,8.204761E-2,5.3869247E-2,7.791212E-2,1.2220542E-1,0E0,0E0,0E0,0E0,0E0,0E0,0E0,0E0,0E0,0E0,0E0,0E0,0E0],"parents":[2147483647,0,0,1,1,2,2,3,3,4,4,5,5,6,6,7,7,9,9,11,11,12,12,13,13,14,14,17,17,19,19,22,22,23,23,24,24,25,25],"right_children":[2,4,6,8,10,12,14,16,-1,18,-1,20,22,24,26,-1,-1,28,-1,30,-1,-1,32,34,36,38,-1,-1,-1,-1,-1,-1,-1,-1,-1,-1,-1,-1,-1],"split_conditions":[1E0,2E0,1E0,4.132E0,6.8688226E-1,9E0,2.14E0,3.35E0,-4.325873E-3,7.933E0,-1.8951452E-3,3.14E-1,5.01E-1,7.677577E-1,6E0,-1.93101E-3,9.2105434E-4,6.4434904E-1,1.0715306E-3,2.6984638E-1,-2.9783524E-3,-6.25267E-4,9.712E0,3.31E-1,7.913932E-1,1.1976368E0,2.0192033E-3,-2.910965E-3,2.5245082E-4,-2.2068333E-3,2.3750425E-4,3.2935883E-3,-4.8339268E-4,2.4187563E-3,5.1530346E-4,-1.3528432E-3,1.2797876E-3,-1.2796712E-3,1.150387E-3],"split_indices":[5,3,20,8,12,3,8,8,0,8,0,10,10,13,3,0,0,13,0,12,0,0,8,10,13,12,0,0,0,0,0,0,0,0,0,0,0,0,0],"split_type":[0,0,0,0,0,0,0,0,0,0,0,0,0,0,0,0,0,0,0,0,0,0,0,0,0,0,0,0,0,0,0,0,0,0,0,0,0,0,0],"sum_hessian":[4.17E2,1.27E2,2.9E2,6.2E1,6.5E1,9.2E1,1.98E2,4.4E1,1.8E1,3.6E1,2.9E1,7E1,2.2E1,1.1E2,8.8E1,4.1E1,3E0,3E1,6E0,3.4E1,3.6E1,4E0,1.8E1,9.2E1,1.8E1,6.1E1,2.7E1,5E0,2.5E1,9E0,2.5E1,1.5E1,3E0,7.2E1,2E1,7E0,1.1E1,4.6E1,1.5E1],"tree_param":{"num_deleted":"0","num_feature":"23","num_nodes":"39","size_leaf_vector":"1"}},{"base_weights":[1.9343961E-3,-6.256182E-2,9.225384E-2,-3.469166E-2,-1.3949922E-1,1.7908607E-2,1.3550442E-1,-2.3031742E-3,-1.1125137E-2,-1.525328E-1,5.6643516E-4,3.2187715E-2,-1.4429564E-3,1.5877499E-1,-2.9986575E-2,-2.261775E-2,4.2949874E-2,-4.7728736E-3,-1.1751353E-3,4.7158953E-2,-5.7046046E-4,1.8665318E-1,8.0892466E-2,-1.5499621E-3,9.2633214E-4,5.8617225E-6,-1.2402195E-3,-4.5614617E-4,2.153547E-3,-6.0314825E-4,1.637704E-3,5.3902855E-3,2.3460439E-4,4.8308264E-4,3.9290767E-3],"categories":[],"categories_nodes":[],"categories_segments":[],"categories_sizes":[],"default_left":[0,0,0,0,0,0,0,0,0,0,0,0,0,0,0,0,0,0,0,0,0,0,0,0,0,0,0,0,0,0,0,0,0,0,0],"id":29,"left_children":[1,3,5,7,9,11,13,-1,15,17,-1,19,-1,21,23,25,27,-1,-1,29,-1,31,33,-1,-1,-1,-1,-1,-1,-1,-1,-1,-1,-1,-1],"loss_changes":[2.6116335E0,5.1888967E-1,5.790844E-1,2.2239438E-1,1.660744E-1,9.28511E-2,4.9097443E-1,0E0,9.960601E-2,6.7313194E-2,0E0,6.41835E-2,0E0,9.353113E-2,5.1367134E-2,6.3511916E-2,6.962282E-2,0E0,0E0,5.7371527E-2,0E0,7.1398735E-2,1.4190441E-1,0E0,0E0,0E0,0E0,0E0,0E0,0E0,0E0,0E0,0E0,0E0,0E0],"parents":[2147483647,0,0,1,1,2,2,3,3,4,4,5,5,6,6,8,8,9,9,11,11,13,13,14,14,15,15,16,16,19,19,21,21,22,22],"right_children":[2,4,6,8,10,12,14,-1,16,18,-1,20,-1,22,24,26,28,-1,-1,30,-1,32,34,-1,-1,-1,-1,-1,-1,-1,-1,-1,-1,-1,-1],"split_conditions":[3E0,2.743E0,2E0,2E0,7.073E0,7.677577E-1,6.968E0,-2.3031742E-3,1.8484774E0,2.3506448E0,5.6643516E-4,6.624E0,-1.4429564E-3,1.4868109E0,5.975296E-1,1.65E-1,2E0,-4.7728736E-3,-1.1751353E-3,5.9E-2,-5.7046046E-4,1E0,3E0,-1.5499621E-3,9.2633214E-4,5.8617225E-6,-1.2402195E-3,-4.5614617E-4,2.153547E-3,-6.0314825E-4,1.637704E-3,5.3902855E-3,2.3460439E-4,4.8308264E-4,3.9290767E-3],"split_indices":[1,8,2,1,9,13,8,0,12,12,0,8,0,12,13,9,2,0,0,9,0,16,2,0,0,0,0,0,0,0,0,0,0,0,0],"split_type":[0,0,0,0,0,0,0,0,0,0,0,0,0,0,0,0,0,0,0,0,0,0,0,0,0,0,0,0,0,0,0,0,0,0,0],"sum_hessian":[4.31E2,2.53E2,1.78E2,1.95E2,5.8E1,7E1,1.08E2,5.7E1,1.38E2,5.4E1,4E0,6.2E1,8E0,9.5E1,1.3E1,1.18E2,2E1,4.2E1,1.2E1,4.9E1,1.3E1,6.1E1,3.4E1,1E1,3E0,6.2E1,5.6E1,9E0,1.1E1,6E0,4.3E1,5.8E1,3E0,2.2E1,1.2E1],"tree_param":{"num_deleted":"0","num_feature":"23","num_nodes":"35","size_leaf_vector":"1"}},{"base_weights":[-2.7424882E-3,-5.2238487E-2,1.3651924E-1,-8.86332E-2,-7.2787824E-4,5.1768914E-2,1.9672455E-1,-1.7238336E-3,-1.5714583E-1,-6.427755E-2,2.6879476E-2,2.0959664E-3,-1.5933873E-3,5.7383305E-3,1.0167863E-5,-4.619741E-3,-1.6903173E-4,-8.176095E-2,1.0711955E-3,2.3945529E-4,6.0181107E-2,-2.7235907E-3,-1.610962E-4,1.6161863E-4,2.446158E-3],"categories":[],"categories_nodes":[],"categories_segments":[],"categories_sizes":[],"default_left":[0,0,0,0,0,0,0,0,0,0,0,0,0,0,0,0,0,0,0,0,0,0,0,0,0],"id":30,"left_children":[1,3,5,7,9,11,13,-1,15,17,19,-1,-1,-1,-1,-1,-1,21,-1,-1,23,-1,-1,-1,-1],"loss_changes":[3.0928109E0,6.193326E-1,5.1172256E-1,2.699318E-1,2.70694E-1,1.9291875E-1,1.1953592E-1,0E0,5.5408955E-2,1.11297145E-1,6.1004363E-2,0E0,0E0,0E0,0E0,0E0,0E0,4.702249E-2,0E0,0E0,5.0678715E-2,0E0,0E0,0E0,0E0],"parents":[2147483647,0,0,1,1,2,2,3,3,4,4,5,5,6,6,8,8,9,9,10,10,17,17,20,20],"right_children":[2,4,6,8,10,12,14,-1,16,18,20,-1,-1,-1,-1,-1,-1,22,-1,-1,24,-1,-1,-1,-1],"split_conditions":[9.8E1,7.7E1,1.12E2,1E0,6.2114894E-1,1E0,1.578E0,-1.7238336E-3,3E0,2.00001E0,2.24E-1,2.0959664E-3,-1.5933873E-3,5.7383305E-3,1.0167863E-5,-4.619741E-3,-1.6903173E-4,1E0,1.0711955E-3,2.3945529E-4,8.1E1,-2.7235907E-3,-1.610962E-4,1.6161863E-4,2.446158E-3],"split_indices":[0,0,0,22,13,22,9,0,1,4,9,0,0,0,0,0,0,20,0,0,0,0,0,0,0],"split_type":[0,0,0,0,0,0,0,0,0,0,0,0,0,0,0,0,0,0,0,0,0,0,0,0,0],"sum_hessian":[4.31E2,3.22E2,1.09E2,1.85E2,1.37E2,5.2E1,5.7E1,1.45E2,4E1,3.8E1,9.9E1,4.5E1,7E0,5.4E1,3E0,3.7E1,3E0,3.4E1,4E0,7.1E1,2.8E1,2.6E1,8E0,1.3E1,1.5E1],"tree_param":{"num_deleted":"0","num_feature":"23","num_nodes":"25","size_leaf_vector":"1"}},{"base_weights":[4.5355916E-4,-4.8825473E-2,6.701634E-2,-2.6842922E-2,-1.0835283E-1,-1.5149837E-2,1.0858344E-1,-9.941948E-4,3.0703703E-2,-1.2569842E-1,1.4703678E-3,-5.009824E-2,3.0361149E-3,1.4128941E-1,5.6710314E-2,-7.388085E-5,2.4996856E-3,-1.3885918E-1,-6.4575754E-4,-2.1842923E-3,1.3633943E-2,1.4777938E-1,-8.117712E-5,-1.0458598E-4,2.66316E-3,-4.203782E-3,-4.6095843E-4,-1.2223329E-3,1.240038E-3,4.556366E-3,1.2917608E-3],"categories":[],"categories_nodes":[],"categories_segments":[],"categories_sizes":[],"default_left":[0,0,0,0,0,0,0,0,0,0,0,0,0,0,0,0,0,0,0,0,0,1,0,0,0,0,0,0,0,0,0],"id":31,"left_children":[1,3,5,7,9,11,13,-1,15,17,-1,19,-1,21,23,-1,-1,25,-1,-1,27,29,-1,-1,-1,-1,-1,-1,-1,-1,-1],"loss_changes":[1.4937413E0,3.170247E-1,6.759703E-1,1.12859905E-1,2.4706489E-1,3.6297938E-1,1.5014625E-1,0E0,6.45996E-2,5.7779074E-2,0E0,1.2259948E-1,0E0,7.285237E-2,1.554708E-1,0E0,0E0,5.9012532E-2,0E0,0E0,6.44642E-2,4.727471E-2,0E0,0E0,0E0,0E0,0E0,0E0,0E0,0E0,0E0],"parents":[2147483647,0,0,1,1,2,2,3,3,4,4,5,5,6,6,8,8,9,9,11,11,13,13,14,14,17,17,20,20,21,21],"right_children":[2,4,6,8,10,12,14,-1,16,18,-1,20,-1,22,24,-1,-1,26,-1,-1,28,30,-1,-1,-1,-1,-1,-1,-1,-1,-1],"split_conditions":[2E0,3.6E-1,1E0,1E0,8E0,3E0,2.032E0,-9.941948E-4,6E0,1E0,1.4703678E-3,3E0,3.0361149E-3,4.52E-1,4E0,-7.388085E-5,2.4996856E-3,6.858E0,-6.4575754E-4,-2.1842923E-3,2.6984638E-1,5E0,-8.117712E-5,-1.0458598E-4,2.66316E-3,-4.203782E-3,-4.6095843E-4,-1.2223329E-3,1.240038E-3,4.556366E-3,1.2917608E-3],"split_indices":[2,10,20,6,3,2,8,0,3,20,0,3,0,10,3,0,0,10,0,0,12,3,0,0,0,0,0,0,0,0,0],"split_type":[0,0,0,0,0,0,0,0,0,0,0,0,0,0,0,0,0,0,0,0,0,0,0,0,0,0,0,0,0,0,0],"sum_hessian":[4.38E2,2.53E2,1.85E2,1.94E2,5.9E1,6.4E1,1.21E2,1.71E2,2.3E1,5.5E1,4E0,5.4E1,1E1,6.5E1,5.6E1,2E1,3E0,4.6E1,9E0,3.6E1,1.8E1,6.2E1,3E0,2.5E1,3.1E1,4E1,6E0,5E0,1.3E1,4.9E1,1.3E1],"tree_param":{"num_deleted":"0","num_feature":"23","num_nodes":"31","size_leaf_vector":"1"}},{"base_weights":[2.384191E-3,-6.0671564E-2,2.9629953E-2,-3.1303413E-2,-1.23320684E-1,1.8833596E-2,3.066874E-3,-8.037785E-3,-1.9364665E-3,-3.9230385E-3,-2.7954514E-4,-4.9160194E-2,4.322567E-2,-2.260233E-2,3.3306357E-2,-7.501796E-2,7.1322295E-4,6.7976974E-2,7.469477E-5,-1.2737534E-3,1.2400133E-3,2.1373844E-3,-7.9480716E-4,-2.3063896E-3,5.3355086E-4,6.459653E-4,2.2054154E-3],"categories":[],"categories_nodes":[],"categories_segments":[],"categories_sizes":[],"default_left":[0,0,0,0,0,0,0,0,0,0,0,0,0,0,0,0,0,0,0,0,0,0,0,0,0,0,0],"id":32,"left_children":[1,3,5,7,9,11,-1,13,-1,-1,-1,15,17,19,21,23,-1,25,-1,-1,-1,-1,-1,-1,-1,-1,-1],"loss_changes":[7.607186E-1,2.1226782E-1,2.5012237E-1,8.642145E-2,6.649327E-2,4.873516E-1,0E0,5.092226E-2,0E0,0E0,0E0,1.6892667E-1,2.1179917E-1,1.1044909E-1,8.010251E-2,5.8460474E-2,0E0,5.0075293E-2,0E0,0E0,0E0,0E0,0E0,0E0,0E0,0E0,0E0],"parents":[2147483647,0,0,1,1,2,2,3,3,4,4,5,5,7,7,11,11,12,12,13,13,14,14,15,15,17,17],"right_children":[2,4,6,8,10,12,-1,14,-1,-1,-1,16,18,20,22,24,-1,26,-1,-1,-1,-1,-1,-1,-1,-1,-1],"split_conditions":[1E0,4.132E0,2.00001E0,7.184023E-1,6.0521895E-1,1E0,3.066874E-3,3E0,-1.9364665E-3,-3.9230385E-3,-2.7954514E-4,1E0,2.108E0,6.87771E-1,6.6929775E-1,9.421E0,7.1322295E-4,6.656942E-1,7.469477E-5,-1.2737534E-3,1.2400133E-3,2.1373844E-3,-7.9480716E-4,-2.3063896E-3,5.3355086E-4,6.459653E-4,2.2054154E-3],"split_indices":[5,8,4,13,13,20,0,11,0,0,0,17,8,13,13,9,0,13,0,0,0,0,0,0,0,0,0],"split_type":[0,0,0,0,0,0,0,0,0,0,0,0,0,0,0,0,0,0,0,0,0,0,0,0,0,0,0],"sum_hessian":[4.25E2,1.25E2,3E2,9.4E1,3.1E1,2.74E2,2.6E1,6.5E1,2.9E1,2.5E1,6E0,7E1,2.04E2,5.1E1,1.4E1,5.2E1,1.8E1,1.23E2,8.1E1,4E1,1.1E1,7E0,7E0,4.9E1,3E0,3E1,9.3E1],"tree_param":{"num_deleted":"0","num_feature":"23","num_nodes":"27","size_leaf_vector":"1"}},{"base_weights":[-2.2307513E-4,-5.3139232E-2,7.4239105E-2,-3.277902E-2,-1.1757544E-1,9.6970625E-2,-4.1631546E-2,-5.3291526E-2,1.1908985E-2,-1.3740169E-1,6.7884225E-4,1.819247E-2,1.3070679E-1,-2.1789544E-3,1.195327E-3,-1.6550306E-3,1.6298558E-4,4.0644355E-2,-8.5083663E-4,-2.2148983E-4,-4.238954E-3,-2.6907194E-2,5.7282444E-2,4.536256E-3,7.5610034E-2,2.1668496E-3,-2.093462E-4,-1.2885096E-3,9.804565E-4,-4.7762317E-4,2.4030867E-3,3.2099878E-4,2.9302533E-3],"categories":[],"categories_nodes":[],"categories_segments":[],"categories_sizes":[],"default_left":[0,0,0,0,0,0,0,0,0,0,0,0,0,0,0,0,0,0,0,0,0,0,0,0,0,0,0,0,0,0,0,0,0],"id":33,"left_children":[1,3,5,7,9,11,13,15,17,19,-1,21,23,-1,-1,-1,-1,25,-1,-1,-1,27,29,-1,31,-1,-1,-1,-1,-1,-1,-1,-1],"loss_changes":[1.7707907E0,3.109777E-1,5.2693856E-1,1.9961886E-1,1.9727051E-1,4.0095544E-1,1.4287382E-1,5.6331575E-2,1.0074235E-1,9.2297554E-2,0E0,1.1516568E-1,8.7135434E-2,0E0,0E0,0E0,0E0,9.053294E-2,0E0,0E0,0E0,5.351334E-2,8.571024E-2,0E0,9.693983E-2,0E0,0E0,0E0,0E0,0E0,0E0,0E0,0E0],"parents":[2147483647,0,0,1,1,2,2,3,3,4,4,5,5,6,6,7,7,8,8,9,9,11,11,12,12,17,17,21,21,22,22,24,24],"right_children":[2,4,6,8,10,12,14,16,18,20,-1,22,24,-1,-1,-1,-1,26,-1,-1,-1,28,30,-1,32,-1,-1,-1,-1,-1,-1,-1,-1],"split_conditions":[3E0,1E0,5.924E0,2E0,4.633E0,2E0,5.975296E-1,6E0,1.973E0,1.86E-1,6.7884225E-4,1.863E0,2.119E0,-2.1789544E-3,1.195327E-3,-1.6550306E-3,1.6298558E-4,2.91E-1,-8.5083663E-4,-2.2148983E-4,-4.238954E-3,3.09E-1,9.6E-2,4.536256E-3,4E0,2.1668496E-3,-2.093462E-4,-1.2885096E-3,9.804565E-4,-4.7762317E-4,2.4030867E-3,3.2099878E-4,2.9302533E-3],"split_indices":[1,22,8,2,9,2,13,3,8,10,0,8,8,0,0,0,0,10,0,0,0,9,9,0,3,0,0,0,0,0,0,0,0],"split_type":[0,0,0,0,0,0,0,0,0,0,0,0,0,0,0,0,0,0,0,0,0,0,0,0,0,0,0,0,0,0,0,0,0],"sum_hessian":[4.32E2,2.54E2,1.78E2,2.03E2,5.1E1,1.5E2,2.8E1,1.38E2,6.5E1,4.5E1,6E0,4.9E1,1.01E2,2E1,8E0,1.25E2,1.3E1,3.9E1,2.6E1,6E0,3.9E1,2.4E1,2.5E1,5.3E1,4.8E1,1.9E1,2E1,2E1,4E0,8E0,1.7E1,1.9E1,2.9E1],"tree_param":{"num_deleted":"0","num_feature":"23","num_nodes":"33","size_leaf_vector":"1"}},{"base_weights":[-3.5211798E-3,-4.813444E-2,1.2798531E-1,-3.5411362E-3,-1.8420031E-2,1.4267506E-1,1.1169296E-2,-7.501201E-2,1.4240198E-3,8.41172E-2,4.947506E-3,1.9446296E-3,-8.5453625E-4,-1.6875325E-2,-1.1646857E-1,-6.6006335E-4,4.378009E-2,6.38441E-4,3.1376702E-3,-1.2143789E-3,1.1970885E-3,-3.8948094E-3,-2.5380903E-4,2.3785597E-3,-1.6617039E-4],"categories":[],"categories_nodes":[],"categories_segments":[],"categories_sizes":[],"default_left":[0,0,0,0,0,0,0,0,0,0,0,0,0,0,0,0,0,0,0,0,0,0,0,0,0],"id":34,"left_children":[1,3,5,-1,7,9,11,13,15,17,-1,-1,-1,19,21,-1,23,-1,-1,-1,-1,-1,-1,-1,-1],"loss_changes":[2.539374E0,7.37228E-1,1.7424631E-1,0E0,2.757983E-1,6.7816496E-2,7.19634E-2,1.363112E-1,2.1093544E-1,6.9481164E-2,0E0,0E0,0E0,7.504207E-2,7.841948E-2,0E0,1.5714127E-1,0E0,0E0,0E0,0E0,0E0,0E0,0E0,0E0],"parents":[2147483647,0,0,1,1,2,2,4,4,5,5,6,6,7,7,8,8,9,9,13,13,14,14,16,16],"right_children":[2,4,6,-1,8,10,12,14,16,18,-1,-1,-1,20,22,-1,24,-1,-1,-1,-1,-1,-1,-1,-1],"split_conditions":[9.8E1,6.4E1,6.624E0,-3.5411362E-3,6.2114894E-1,1.11E2,3E0,5.924E0,8.1E1,6.622539E-1,4.947506E-3,1.9446296E-3,-8.5453625E-4,3.395E0,6.85E0,-6.6006335E-4,2.011E0,6.38441E-4,3.1376702E-3,-1.2143789E-3,1.1970885E-3,-3.8948094E-3,-2.5380903E-4,2.3785597E-3,-1.6617039E-4],"split_indices":[0,0,8,0,13,0,1,8,0,13,0,0,0,8,9,0,8,0,0,0,0,0,0,0,0],"split_type":[0,0,0,0,0,0,0,0,0,0,0,0,0,0,0,0,0,0,0,0,0,0,0,0,0],"sum_hessian":[4.15E2,3.14E2,1.01E2,7.8E1,2.36E2,8.8E1,1.3E1,5.5E1,1.81E2,4.4E1,4.4E1,3E0,1E1,2.8E1,2.7E1,1.16E2,6.5E1,1.9E1,2.5E1,2.1E1,7E0,2E1,7E0,3.2E1,3.3E1],"tree_param":{"num_deleted":"0","num_feature":"23","num_nodes":"25","size_leaf_vector":"1"}},{"base_weights":[-4.2545196E-4,-5.587336E-2,2.230572E-2,-9.208964E-2,-3.677747E-2,3.0824836E-2,-5.7573393E-2,2.3735914E-4,-3.109241E-3,1.3409893E-3,-4.7377333E-2,-6.8924425E-4,3.705173E-2,-3.6121672E-3,1.7946975E-3,-5.681435E-2,3.8183197E-2,2.4705319E-2,7.0443586E-2,-3.152067E-4,-2.1419025E-3,-7.3035626E-4,2.0683876E-3,9.2284137E-4,-5.1259866E-4,2.7360597E-3,3.5685708E-4],"categories":[],"categories_nodes":[],"categories_segments":[],"categories_sizes":[],"default_left":[0,0,0,0,0,0,0,0,0,0,0,0,0,0,0,0,0,0,0,0,0,0,0,0,0,0,0],"id":35,"left_children":[1,3,5,7,9,11,13,-1,-1,-1,15,-1,17,-1,-1,19,21,23,25,-1,-1,-1,-1,-1,-1,-1,-1],"loss_changes":[5.839801E-1,6.357151E-2,2.3910229E-1,8.8467E-2,1.1231026E-1,1.1274326E-1,3.7823853E-1,0E0,0E0,0E0,9.6168324E-2,0E0,9.843534E-2,0E0,0E0,7.4368864E-2,5.1168658E-2,8.337429E-2,1.0063341E-1,0E0,0E0,0E0,0E0,0E0,0E0,0E0,0E0],"parents":[2147483647,0,0,1,1,2,2,3,3,4,4,5,5,6,6,10,10,12,12,15,15,16,16,17,17,18,18],"right_children":[2,4,6,8,10,12,14,-1,-1,-1,16,-1,18,-1,-1,20,22,24,26,-1,-1,-1,-1,-1,-1,-1,-1],"split_conditions":[1E0,5.087289E-1,1.171E0,4.356169E-2,5.6311095E-1,2.565459E-1,8E0,2.3735914E-4,-3.109241E-3,1.3409893E-3,2.1050766E0,-6.8924425E-4,6E0,-3.6121672E-3,1.7946975E-3,4.362199E-1,2E0,5E0,1.2280093E0,-3.152067E-4,-2.1419025E-3,-7.3035626E-4,2.0683876E-3,9.2284137E-4,-5.1259866E-4,2.7360597E-3,3.5685708E-4],"split_indices":[5,13,10,12,13,12,3,0,0,0,12,0,3,0,0,12,3,3,12,0,0,0,0,0,0,0,0],"split_type":[0,0,0,0,0,0,0,0,0,0,0,0,0,0,0,0,0,0,0,0,0,0,0,0,0,0,0],"sum_hessian":[4.46E2,1.26E2,3.2E2,3.2E1,9.4E1,2.94E2,2.6E1,6E0,2.6E1,7E0,8.7E1,2.7E1,2.67E2,1.6E1,1E1,8.1E1,6E0,2.06E2,6.1E1,2.9E1,5.2E1,3E0,3E0,1.74E2,3.2E1,3.7E1,2.4E1],"tree_param":{"num_deleted":"0","num_feature":"23","num_nodes":"27","size_leaf_vector":"1"}},{"base_weights":[3.5570352E-3,2.0073857E-2,-8.175594E-2,2.9201265E-3,5.9565812E-2,-1.0144079E-1,1.5957972E-2,1.5742702E-2,-8.49342E-2,-1.4613861E-3,6.901548E-2,-1.21318884E-1,-5.436227E-3,1.6181989E-3,-1.3091489E-3,3.0880421E-2,-3.370923E-4,-2.9261585E-3,-2.0121533E-4,-2.8971804E-4,7.899473E-2,-3.867925E-3,-1.425913E-4,9.3201274E-4,-1.3888734E-3,1.2314403E-3,-3.7066598E-4,-5.8616244E-4,2.3437883E-3],"categories":[],"categories_nodes":[],"categories_segments":[],"categories_sizes":[],"default_left":[0,0,0,0,0,0,0,0,0,0,0,0,0,0,0,0,0,0,0,0,0,0,0,0,0,0,0,0,0],"id":36,"left_children":[1,3,5,7,9,11,13,15,17,-1,19,21,23,-1,-1,25,-1,-1,-1,-1,27,-1,-1,-1,-1,-1,-1,-1,-1],"loss_changes":[6.309939E-1,2.5159034E-1,1.5400395E-1,3.154E-1,1.5085617E-1,1.1190164E-1,7.6071426E-2,1.05578706E-1,4.9170226E-2,0E0,9.2570126E-2,9.7213864E-2,4.8599076E-2,0E0,0E0,9.928468E-2,0E0,0E0,0E0,0E0,6.5460145E-2,0E0,0E0,0E0,0E0,0E0,0E0,0E0,0E0],"parents":[2147483647,0,0,1,1,2,2,3,3,4,4,5,5,6,6,7,7,8,8,10,10,11,11,12,12,15,15,20,20],"right_children":[2,4,6,8,10,12,14,16,18,-1,20,22,24,-1,-1,26,-1,-1,-1,-1,28,-1,-1,-1,-1,-1,-1,-1,-1],"split_conditions":[4.206E0,1E0,2.00001E0,3.68E-1,3.977124E-1,6.0521895E-1,3.7967017E-1,2.239E0,2.4188576E0,-1.4613861E-3,3.11E-1,7.006E0,8.913E0,1.6181989E-3,-1.3091489E-3,7.677577E-1,-3.370923E-4,-2.9261585E-3,-2.0121533E-4,-2.8971804E-4,2.0615065E-1,-3.867925E-3,-1.425913E-4,9.3201274E-4,-1.3888734E-3,1.2314403E-3,-3.7066598E-4,-5.8616244E-4,2.3437883E-3],"split_indices":[8,6,4,10,13,13,13,8,12,0,8,10,8,0,0,13,0,0,0,0,12,0,0,0,0,0,0,0,0],"split_type":[0,0,0,0,0,0,0,0,0,0,0,0,0,0,0,0,0,0,0,0,0,0,0,0,0,0,0,0,0],"sum_hessian":[4.29E2,3.65E2,6.4E1,2.61E2,1.04E2,5.3E1,1.1E1,2.34E2,2.7E1,5E0,9.9E1,4.2E1,1.1E1,7E0,4E0,1.51E2,8.3E1,1.9E1,8E0,1.1E1,8.8E1,3.5E1,7E0,7E0,4E0,1.16E2,3.5E1,3E0,8.5E1],"tree_param":{"num_deleted":"0","num_feature":"23","num_nodes":"29","size_leaf_vector":"1"}},{"base_weights":[1.7443378E-3,-5.1791694E-2,7.017688E-2,-6.471272E-2,3.136545E-2,1.6872105E-3,1.160139E-1,-4.260381E-2,-3.7122408E-3,-4.655265E-4,2.961381E-3,-3.9150417E-2,2.7680514E-2,4.419186E-2,4.0148264E-3,-1.5025043E-3,-1.0456949E-2,-6.539939E-2,1.3449878E-3,-6.340652E-4,4.490449E-2,-5.42146E-4,7.767592E-2,5.0814333E-4,-1.459423E-3,2.5424006E-4,-2.371419E-3,1.6888041E-3,-4.151384E-4,2.6888566E-3,-7.3273585E-4],"categories":[],"categories_nodes":[],"categories_segments":[],"categories_sizes":[],"default_left":[0,0,0,0,0,0,0,0,0,0,0,0,0,0,0,0,0,0,0,0,0,0,0,0,0,0,0,0,0,0,0],"id":37,"left_children":[1,3,5,7,9,11,13,15,-1,-1,-1,17,19,21,-1,-1,23,25,-1,-1,27,-1,29,-1,-1,-1,-1,-1,-1,-1,-1],"loss_changes":[1.6425418E0,2.8814077E-1,6.1571324E-1,2.8509945E-1,1.5866876E-1,1.0251718E-1,1.8238246E-1,6.059462E-2,0E0,0E0,0E0,1.14043504E-1,5.9924863E-2,1.1062857E-1,0E0,0E0,7.782956E-2,5.4979205E-2,0E0,0E0,5.1868208E-2,0E0,8.4399536E-2,0E0,0E0,0E0,0E0,0E0,0E0,0E0,0E0],"parents":[2147483647,0,0,1,1,2,2,3,3,4,4,5,5,6,6,7,7,11,11,12,12,13,13,16,16,17,17,20,20,22,22],"right_children":[2,4,6,8,10,12,14,16,-1,-1,-1,18,20,22,-1,-1,24,26,-1,-1,28,-1,30,-1,-1,-1,-1,-1,-1,-1,-1],"split_conditions":[2E0,6E0,3E0,1E0,1E0,1E0,1E0,3E0,-3.7122408E-3,-4.655265E-4,2.961381E-3,1.791E0,4.2082322E-1,4.9028867E-1,4.0148264E-3,-1.5025043E-3,1.0601771E0,1.86E-1,1.3449878E-3,-6.340652E-4,2.3506448E0,-5.42146E-4,2.6092057E0,5.0814333E-4,-1.459423E-3,2.5424006E-4,-2.371419E-3,1.6888041E-3,-4.151384E-4,2.6888566E-3,-7.3273585E-4],"split_indices":[2,3,1,22,6,20,20,1,0,0,0,10,12,12,0,0,12,10,0,0,12,0,12,0,0,0,0,0,0,0,0],"split_type":[0,0,0,0,0,0,0,0,0,0,0,0,0,0,0,0,0,0,0,0,0,0,0,0,0,0,0,0,0,0,0],"sum_hessian":[4.31E2,2.43E2,1.88E2,2.12E2,3.1E1,7.9E1,1.09E2,1.71E2,4.1E1,2.3E1,8E0,2.9E1,5E1,3.7E1,7.2E1,1.22E2,4.9E1,2.4E1,5E0,1.2E1,3.8E1,1.4E1,2.3E1,3.2E1,1.7E1,6E0,1.8E1,3E1,8E0,2E1,3E0],"tree_param":{"num_deleted":"0","num_feature":"23","num_nodes":"31","size_leaf_vector":"1"}},{"base_weights":[3.8154926E-3,-4.9479216E-2,7.997775E-2,-1.0309653E-1,-1.664817E-2,5.4192342E-2,4.8153587E-3,-4.2377E-4,-1.16202675E-1,-3.51689E-2,4.5004122E-2,6.262292E-2,-8.8049343E-4,5.644885E-4,-1.2527597E-1,-5.2382328E-2,-8.0031995E-3,-1.6719392E-4,2.047201E-3,3.345587E-4,2.3306163E-3,-3.668997E-3,2.8491238E-4,1.21077624E-4,-1.8538968E-3,-7.092936E-4,1.513984E-3],"categories":[],"categories_nodes":[],"categories_segments":[],"categories_sizes":[],"default_left":[0,0,0,0,0,1,0,0,0,0,0,0,0,0,0,0,0,0,0,0,0,0,0,0,0,0,0],"id":38,"left_children":[1,3,5,7,9,11,-1,-1,13,15,17,19,-1,-1,21,23,25,-1,-1,-1,-1,-1,-1,-1,-1,-1,-1],"loss_changes":[1.8029995E0,4.456365E-1,3.560748E-1,9.7026825E-2,2.1096435E-1,1.2989631E-1,0E0,0E0,1.2583506E-1,6.0690477E-2,6.744821E-2,1.4543927E-1,0E0,0E0,8.1736684E-2,6.914054E-2,8.141851E-2,0E0,0E0,0E0,0E0,0E0,0E0,0E0,0E0,0E0,0E0],"parents":[2147483647,0,0,1,1,2,2,3,3,4,4,5,5,8,8,9,9,10,10,11,11,14,14,15,15,16,16],"right_children":[2,4,6,8,10,12,-1,-1,14,16,18,20,-1,-1,22,24,26,-1,-1,-1,-1,-1,-1,-1,-1,-1,-1],"split_conditions":[3E0,1E0,4E0,1.79E-1,7.318996E-1,3E0,4.8153587E-3,-4.2377E-4,4.356169E-2,2.31E-1,1.38E-1,1E0,-8.8049343E-4,5.644885E-4,7.073E0,4.362199E-1,1.6555238E0,-1.6719392E-4,2.047201E-3,3.345587E-4,2.3306163E-3,-3.668997E-3,2.8491238E-4,1.21077624E-4,-1.8538968E-3,-7.092936E-4,1.513984E-3],"split_indices":[1,20,1,10,13,11,0,0,12,10,9,20,0,0,9,12,12,0,0,0,0,0,0,0,0,0,0],"split_type":[0,0,0,0,0,0,0,0,0,0,0,0,0,0,0,0,0,0,0,0,0,0,0,0,0,0,0],"sum_hessian":[4.27E2,2.53E2,1.74E2,8.9E1,1.64E2,1.47E2,2.7E1,1.4E1,7.5E1,1.29E2,3.5E1,1.36E2,1.1E1,4E0,7.1E1,7.4E1,5.5E1,1.5E1,2E1,4.4E1,9.2E1,6.8E1,3E0,1.6E1,5.8E1,4.7E1,8E0],"tree_param":{"num_deleted":"0","num_feature":"23","num_nodes":"27","size_leaf_vector":"1"}},{"base_weights":[6.482393E-3,-4.447229E-2,7.574051E-2,-2.587052E-2,-1.2804498E-1,1.0141241E-1,-1.4820101E-3,-7.292702E-2,-2.2941441E-3,-3.9193085E-3,2.8287663E-4,7.4324846E-2,4.737477E-3,3.5456484E-4,-2.22059E-3,-2.0972265E-2,1.0299481E-3,2.2491796E-3,-6.137672E-4,2.8257264E-4,-1.3223975E-3],"categories":[],"categories_nodes":[],"categories_segments":[],"categories_sizes":[],"default_left":[0,0,0,0,0,0,0,0,0,0,0,0,0,0,0,0,0,0,0,0,0],"id":39,"left_children":[1,3,5,7,9,11,-1,13,15,-1,-1,17,-1,-1,-1,19,-1,-1,-1,-1,-1],"loss_changes":[1.506951E0,3.5456124E-1,6.452365E-1,2.3445475E-1,8.745438E-2,1.7579544E-1,0E0,5.0142795E-2,1.1729702E-1,0E0,0E0,9.354818E-2,0E0,0E0,0E0,9.3086526E-2,0E0,0E0,0E0,0E0,0E0],"parents":[2147483647,0,0,1,1,2,2,3,3,4,4,5,5,7,7,8,8,11,11,15,15],"right_children":[2,4,6,8,10,12,-1,14,16,-1,-1,18,-1,-1,-1,20,-1,-1,-1,-1,-1],"split_conditions":[3E0,3.35E0,6.968E0,2E0,7.073E0,4E0,-1.4820101E-3,6.3E-2,1E0,-3.9193085E-3,2.8287663E-4,8.145176E-1,4.737477E-3,3.5456484E-4,-2.22059E-3,6.454558E-1,1.0299481E-3,2.2491796E-3,-6.137672E-4,2.8257264E-4,-1.3223975E-3],"split_indices":[1,8,8,1,9,1,0,9,6,0,0,13,0,0,0,12,0,0,0,0,0],"split_type":[0,0,0,0,0,0,0,0,0,0,0,0,0,0,0,0,0,0,0,0,0],"sum_hessian":[4.1E2,2.38E2,1.72E2,2.04E2,3.4E1,1.45E2,2.7E1,6.2E1,1.42E2,3.1E1,3E0,1.17E2,2.8E1,4E0,5.8E1,9.9E1,4.3E1,1.11E2,6E0,4.8E1,5.1E1],"tree_param":{"num_deleted":"0","num_feature":"23","num_nodes":"21","size_leaf_vector":"1"}},{"base_weights":[-8.36773E-3,-3.6325242E-2,1.6484249E-1,-4.039632E-3,-1.7168155E-2,4.8559722E-3,-1.5210919E-4,-5.050848E-2,4.7427914E-3,-2.5698325E-2,-7.708414E-2,-7.734104E-4,5.2368045E-2,-1.7439042E-3,1.740257E-4,-2.5708172E-3,-1.9355035E-5,-7.775987E-4,1.6463656E-3],"categories":[],"categories_nodes":[],"categories_segments":[],"categories_sizes":[],"default_left":[0,0,0,0,0,0,0,0,0,0,0,0,0,0,0,0,0,0,0],"id":40,"left_children":[1,3,5,-1,7,-1,-1,9,11,13,15,-1,17,-1,-1,-1,-1,-1,-1],"loss_changes":[2.1473694E0,7.691001E-1,1.0855925E-1,0E0,2.4516979E-1,0E0,0E0,7.016802E-2,3.3585867E-1,9.982915E-2,6.881827E-2,0E0,6.1926916E-2,0E0,0E0,0E0,0E0,0E0,0E0],"parents":[2147483647,0,0,1,1,2,2,4,4,7,7,8,8,9,9,10,10,12,12],"right_children":[2,4,6,-1,8,-1,-1,10,12,14,16,-1,18,-1,-1,-1,-1,-1,-1],"split_conditions":[1.12E2,5.6E1,2.778E0,-4.039632E-3,6.576673E-1,4.8559722E-3,-1.5210919E-4,1E0,8.1E1,2.3E-1,2.00001E0,-7.734104E-4,1E0,-1.7439042E-3,1.740257E-4,-2.5708172E-3,-1.9355035E-5,-7.775987E-4,1.6463656E-3],"split_indices":[0,0,10,0,13,0,0,22,0,9,4,0,4,0,0,0,0,0,0],"split_type":[0,0,0,0,0,0,0,0,0,0,0,0,0,0,0,0,0,0,0],"sum_hessian":[4.24E2,3.71E2,5.3E1,4.7E1,3.24E2,5E1,3E0,1.24E2,2E2,7.3E1,5.1E1,1.21E2,7.9E1,3E1,4.3E1,4.1E1,1E1,4E0,7.5E1],"tree_param":{"num_deleted":"0","num_feature":"23","num_nodes":"19","size_leaf_vector":"1"}},{"base_weights":[6.222961E-3,-3.8895622E-2,1.2107256E-1,-3.4371105E-3,-1.9527057E-2,1.7174624E-1,6.577976E-2,5.7901866E-3,-4.8448555E-2,-7.30632E-4,5.1801535E-3,8.907325E-3,1.2252713E-1,-2.0750226E-2,6.673582E-2,-7.250247E-2,-7.9017505E-3,8.76112E-4,-1.4758618E-3,1.6317073E-5,3.709552E-3,7.1398093E-4,-9.558077E-4,3.2039436E-3,5.83129E-5,-6.3211535E-4,-2.6248137E-3,6.657575E-4,-1.1885428E-3],"categories":[],"categories_nodes":[],"categories_segments":[],"categories_sizes":[],"default_left":[0,0,0,0,0,0,0,0,0,0,0,0,0,0,0,0,0,0,0,0,0,0,0,0,0,0,0,0,0],"id":41,"left_children":[1,3,5,-1,7,9,11,13,15,-1,-1,17,19,21,23,25,27,-1,-1,-1,-1,-1,-1,-1,-1,-1,-1,-1,-1],"loss_changes":[2.3298888E0,5.088488E-1,2.564838E-1,0E0,2.0288694E-1,2.1404815E-1,2.3147863E-1,2.6070815E-1,1.2046859E-1,0E0,0E0,7.969006E-2,4.6989918E-2,7.9246625E-2,1.4990029E-1,6.7619145E-2,7.2725184E-2,0E0,0E0,0E0,0E0,0E0,0E0,0E0,0E0,0E0,0E0,0E0,0E0],"parents":[2147483647,0,0,1,1,2,2,4,4,5,5,6,6,7,7,8,8,11,11,12,12,13,13,14,14,15,15,16,16],"right_children":[2,4,6,-1,8,10,12,14,16,-1,-1,18,20,22,24,26,28,-1,-1,-1,-1,-1,-1,-1,-1,-1,-1,-1,-1],"split_conditions":[9.8E1,6E1,2.119E0,-3.4371105E-3,2.268E0,1.942592E-1,1.2E2,8.1E1,3E0,-7.30632E-4,5.1801535E-3,8.829E0,2.363E0,4.4690847E-1,9E1,2.619E0,9E1,8.76112E-4,-1.4758618E-3,1.6317073E-5,3.709552E-3,7.1398093E-4,-9.558077E-4,3.2039436E-3,5.83129E-5,-6.3211535E-4,-2.6248137E-3,6.657575E-4,-1.1885428E-3],"split_indices":[0,0,8,0,8,12,0,0,1,0,0,8,8,12,0,8,0,0,0,0,0,0,0,0,0,0,0,0,0],"split_type":[0,0,0,0,0,0,0,0,0,0,0,0,0,0,0,0,0,0,0,0,0,0,0,0,0,0,0,0,0],"sum_hessian":[4.33E2,3.15E2,1.18E2,5E1,2.65E2,5.2E1,6.6E1,1.45E2,1.2E2,3E0,4.9E1,3.8E1,2.8E1,1.05E2,4E1,7.1E1,4.9E1,3.1E1,7E0,3E0,2.5E1,2.2E1,8.3E1,1.9E1,2.1E1,2.7E1,4.4E1,2.7E1,2.2E1],"tree_param":{"num_deleted":"0","num_feature":"23","num_nodes":"29","size_leaf_vector":"1"}},{"base_weights":[4.8886826E-3,-4.447143E-2,7.590425E-2,-9.349037E-2,-1.2039986E-2,3.2074596E-3,1.13007195E-1,-4.7392235E-4,-1.0574305E-1,-3.1051487E-2,3.250391E-2,-1.1875774E-2,1.8866607E-3,1.2806185E-1,-5.760942E-4,-1.11102924E-1,3.233793E-4,-1.079809E-3,6.476277E-4,1.6449837E-3,-3.317224E-4,-6.289016E-4,1.3188765E-3,2.5084295E-4,3.7035877E-3,-3.2749095E-3,-7.5286625E-5],"categories":[],"categories_nodes":[],"categories_segments":[],"categories_sizes":[],"default_left":[0,0,0,0,0,0,0,0,0,0,0,0,0,0,0,0,0,0,0,0,0,0,0,0,0,0,0],"id":42,"left_children":[1,3,5,7,9,11,13,-1,15,17,19,21,-1,23,-1,25,-1,-1,-1,-1,-1,-1,-1,-1,-1,-1,-1],"loss_changes":[1.563697E0,4.09334E-1,4.8954058E-1,8.140087E-2,1.5164691E-1,7.587681E-2,2.660874E-1,0E0,6.647992E-2,5.932215E-2,7.07075E-2,5.0321795E-2,0E0,5.3818345E-2,0E0,5.6754827E-2,0E0,0E0,0E0,0E0,0E0,0E0,0E0,0E0,0E0,0E0,0E0],"parents":[2147483647,0,0,1,1,2,2,3,3,4,4,5,5,6,6,8,8,9,9,10,10,11,11,13,13,15,15],"right_children":[2,4,6,8,10,12,14,-1,16,18,20,22,-1,24,-1,26,-1,-1,-1,-1,-1,-1,-1,-1,-1,-1,-1],"split_conditions":[3E0,1E0,2E0,1.86E-1,2E0,4E0,6.968E0,-4.7392235E-4,6.858E0,3.19E-1,1.973E0,2.00001E0,1.8866607E-3,5.7E-2,-5.760942E-4,2.00001E0,3.233793E-4,-1.079809E-3,6.476277E-4,1.6449837E-3,-3.317224E-4,-6.289016E-4,1.3188765E-3,2.5084295E-4,3.7035877E-3,-3.2749095E-3,-7.5286625E-5],"split_indices":[1,20,2,10,2,1,8,0,10,10,8,4,0,10,0,4,0,0,0,0,0,0,0,0,0,0,0],"split_type":[0,0,0,0,0,0,0,0,0,0,0,0,0,0,0,0,0,0,0,0,0,0,0,0,0,0,0],"sum_hessian":[4.29E2,2.55E2,1.74E2,9.5E1,1.6E2,6.2E1,1.12E2,1.6E1,7.9E1,1.14E2,4.6E1,5.6E1,6E0,1.01E2,1.1E1,7.6E1,3E0,1.02E2,1.2E1,2.7E1,1.9E1,5.2E1,4E0,5E0,9.6E1,7.1E1,5E0],"tree_param":{"num_deleted":"0","num_feature":"23","num_nodes":"27","size_leaf_vector":"1"}},{"base_weights":[2.0651987E-3,-4.392397E-2,5.8280542E-2,-3.1554006E-2,-1.18735544E-1,1.2325035E-2,1.0022319E-1,-4.1902583E-2,1.28879305E-2,-4.252828E-3,1.0203976E-3,3.3855952E-2,-1.4664042E-3,3.0361724E-3,1.0641368E-4,-6.823431E-4,-1.8339407E-3,-3.389783E-4,2.1751192E-3,1.646621E-3,-3.6733676E-4],"categories":[],"categories_nodes":[],"categories_segments":[],"categories_sizes":[],"default_left":[0,0,0,0,0,0,0,0,0,0,0,0,0,0,0,0,0,0,0,0,0],"id":43,"left_children":[1,3,5,7,9,11,13,15,17,-1,-1,19,-1,-1,-1,-1,-1,-1,-1,-1,-1],"loss_changes":[1.1538804E0,1.9464132E-1,3.760047E-1,1.07148215E-1,2.1616009E-1,1.6338655E-1,8.4261775E-2,6.2024236E-2,8.792806E-2,0E0,0E0,1.075338E-1,0E0,0E0,0E0,0E0,0E0,0E0,0E0,0E0,0E0],"parents":[2147483647,0,0,1,1,2,2,3,3,4,4,5,5,6,6,7,7,8,8,11,11],"right_children":[2,4,6,8,10,12,14,16,18,-1,-1,20,-1,-1,-1,-1,-1,-1,-1,-1,-1],"split_conditions":[2E0,1.094E0,3E0,1E0,7.073E0,1E0,1.961E0,1.78E-1,6E0,-4.252828E-3,1.0203976E-3,2E0,-1.4664042E-3,3.0361724E-3,1.0641368E-4,-6.823431E-4,-1.8339407E-3,-3.389783E-4,2.1751192E-3,1.646621E-3,-3.6733676E-4],"split_indices":[2,10,3,6,9,22,9,9,3,0,0,3,0,0,0,0,0,0,0,0,0],"split_type":[0,0,0,0,0,0,0,0,0,0,0,0,0,0,0,0,0,0,0,0,0],"sum_hessian":[4.29E2,2.37E2,1.92E2,2.14E2,2.3E1,9.7E1,9.5E1,1.74E2,4E1,1.9E1,4E0,7.6E1,2.1E1,8.6E1,9E0,1.11E2,6.3E1,3.4E1,6E0,4.8E1,2.8E1],"tree_param":{"num_deleted":"0","num_feature":"23","num_nodes":"21","size_leaf_vector":"1"}},{"base_weights":[-8.802321E-3,-5.004563E-2,4.864938E-2,-8.455115E-2,-7.774063E-4,9.0897724E-2,1.3689327E-3,-1.00673504E-1,1.3707025E-3,3.4964554E-2,1.2201421E-1,-1.3096307E-2,2.0626185E-3,-1.1305479E-2,-3.4812514E-3,-3.6548122E-4,1.6040796E-3,8.322144E-4,3.9241104E-3,-4.5101594E-2,3.718868E-2,-1.707315E-3,1.148371E-3,-1.6828446E-3,1.339881E-3,-1.8024663E-4,1.9091934E-3],"categories":[],"categories_nodes":[],"categories_segments":[],"categories_sizes":[],"default_left":[0,0,0,0,0,0,0,0,0,0,0,0,0,0,0,0,0,0,0,0,0,0,0,0,0,0,0],"id":44,"left_children":[1,3,5,7,-1,9,11,13,-1,15,17,19,-1,21,-1,-1,-1,-1,-1,23,25,-1,-1,-1,-1,-1,-1],"loss_changes":[1.0038252E0,1.6698265E-1,3.538004E-1,2.4094117E-1,0E0,1.258204E-1,1.0597787E-1,1.717745E-1,0E0,5.636467E-2,6.191206E-2,1.5092182E-1,0E0,9.4796576E-2,0E0,0E0,0E0,0E0,0E0,1.04892954E-1,5.5550713E-2,0E0,0E0,0E0,0E0,0E0,0E0],"parents":[2147483647,0,0,1,1,2,2,3,3,5,5,6,6,7,7,9,9,10,10,11,11,13,13,19,19,20,20],"right_children":[2,4,6,8,-1,10,12,14,-1,16,18,20,-1,22,-1,-1,-1,-1,-1,24,26,-1,-1,-1,-1,-1,-1],"split_conditions":[2E0,1E0,2.108E0,4E0,-7.774063E-4,8.2E-1,3E0,1.34E-1,1.3707025E-3,2.3E-1,6.382346E-1,6.6209096E-1,2.0626185E-3,6.354415E-1,-3.4812514E-3,-3.6548122E-4,1.6040796E-3,8.322144E-4,3.9241104E-3,1.3616E1,9.1E-2,-1.707315E-3,1.148371E-3,-1.6828446E-3,1.339881E-3,-1.8024663E-4,1.9091934E-3],"split_indices":[2,20,8,11,0,8,2,9,0,9,13,13,0,13,0,0,0,0,0,8,9,0,0,0,0,0,0],"split_type":[0,0,0,0,0,0,0,0,0,0,0,0,0,0,0,0,0,0,0,0,0,0,0,0,0,0,0],"sum_hessian":[4.06E2,2.37E2,1.69E2,8.3E1,1.54E2,8.5E1,8.4E1,7.6E1,7E0,3.7E1,4.8E1,7.6E1,8E0,1.9E1,5.7E1,1.3E1,2.4E1,1.2E1,3.6E1,4.7E1,2.9E1,9E0,1E1,4.3E1,4E0,1.5E1,1.4E1],"tree_param":{"num_deleted":"0","num_feature":"23","num_nodes":"27","size_leaf_vector":"1"}},{"base_weights":[-8.757544E-4,-3.9991345E-2,1.08348995E-1,-3.4689698E-3,-2.034038E-2,4.4965416E-2,4.314505E-3,1.8984302E-4,-5.2688364E-2,7.201866E-2,-1.2384314E-3,-5.500158E-4,4.660618E-2,-2.0707187E-3,-8.141108E-3,2.327309E-3,-3.3932857E-4,2.2030605E-3,2.5319177E-4,-8.1020227E-4,1.441776E-3],"categories":[],"categories_nodes":[],"categories_segments":[],"categories_sizes":[],"default_left":[0,0,0,0,0,0,0,0,0,0,0,0,0,0,0,0,0,0,0,0,0],"id":45,"left_children":[1,3,5,-1,7,9,-1,11,13,15,-1,-1,17,-1,19,-1,-1,-1,-1,-1,-1],"loss_changes":[1.8905933E0,5.1912886E-1,2.837417E-1,0E0,1.8256599E-1,1.7718524E-1,0E0,1.715799E-1,9.765419E-2,5.824086E-2,0E0,0E0,6.1582066E-2,0E0,6.920257E-2,0E0,0E0,0E0,0E0,0E0,0E0],"parents":[2147483647,0,0,1,1,2,2,4,4,5,5,7,7,8,8,9,9,12,12,14,14],"right_children":[2,4,6,-1,8,10,-1,12,14,16,-1,-1,18,-1,20,-1,-1,-1,-1,-1,-1],"split_conditions":[9.8E1,5.6E1,1.13E2,-3.4689698E-3,2.398E0,1E0,4.314505E-3,8.1E1,3E0,7E0,-1.2384314E-3,-5.500158E-4,9E1,-2.0707187E-3,6E0,2.327309E-3,-3.3932857E-4,2.2030605E-3,2.5319177E-4,-8.1020227E-4,1.441776E-3],"split_indices":[0,0,0,0,8,22,0,0,1,3,0,0,0,0,3,0,0,0,0,0,0],"split_type":[0,0,0,0,0,0,0,0,0,0,0,0,0,0,0,0,0,0,0,0,0],"sum_hessian":[4.25E2,3.17E2,1.08E2,5.1E1,2.66E2,5.3E1,5.5E1,1.68E2,9.8E1,4.2E1,1.1E1,1.21E2,4.7E1,6.2E1,3.6E1,3.7E1,5E0,2E1,2.7E1,3E1,6E0],"tree_param":{"num_deleted":"0","num_feature":"23","num_nodes":"21","size_leaf_vector":"1"}},{"base_weights":[-3.3260193E-3,-5.0272066E-2,5.7297118E-2,-9.30479E-2,-3.0013068E-2,-7.153274E-3,9.471531E-2,-3.6835547E-3,-1.5455384E-3,-4.4775285E-2,1.9495793E-2,-4.5719106E-2,6.9309614E-4,1.112998E-1,-1.0065178E-3,-5.0697144E-2,1.056504E-3,-2.9360002E-4,6.113474E-2,2.1235932E-2,-2.1679648E-3,1.4085737E-1,5.995365E-2,-1.016361E-3,-2.527016E-3,-2.2238589E-4,2.7522792E-3,-7.702721E-4,1.871407E-3,4.390838E-3,1.2117208E-3,4.739216E-5,2.0953272E-3],"categories":[],"categories_nodes":[],"categories_segments":[],"categories_sizes":[],"default_left":[0,0,0,0,0,0,0,0,0,0,0,0,0,0,0,0,0,0,0,0,0,0,0,0,0,0,0,0,0,0,0,0,0],"id":46,"left_children":[1,3,5,7,9,11,13,-1,-1,15,17,19,-1,21,-1,23,-1,-1,25,27,-1,29,31,-1,-1,-1,-1,-1,-1,-1,-1,-1,-1],"loss_changes":[1.2878447E0,1.9631344E-1,4.8275518E-1,5.039531E-2,1.4334123E-1,1.0964415E-1,3.078729E-1,0E0,0E0,8.811548E-2,6.656878E-2,9.9844374E-2,0E0,9.889579E-2,0E0,5.0514072E-2,0E0,0E0,6.349344E-2,6.0488522E-2,0E0,4.76439E-2,4.9309492E-2,0E0,0E0,0E0,0E0,0E0,0E0,0E0,0E0,0E0,0E0],"parents":[2147483647,0,0,1,1,2,2,3,3,4,4,5,5,6,6,9,9,10,10,11,11,13,13,15,15,18,18,19,19,21,21,22,22],"right_children":[2,4,6,8,10,12,14,-1,-1,16,18,20,-1,22,-1,24,-1,-1,26,28,-1,30,32,-1,-1,-1,-1,-1,-1,-1,-1,-1,-1],"split_conditions":[2E0,2E0,3E0,6.4767694E-1,5E0,1E0,6.968E0,-3.6835547E-3,-1.5455384E-3,4E0,1E0,1E0,6.9309614E-4,2.108E0,-1.0065178E-3,3.395E0,1.056504E-3,-2.9360002E-4,6E0,7.202E0,-2.1679648E-3,7.621602E-1,2.363E0,-1.016361E-3,-2.527016E-3,-2.2238589E-4,2.7522792E-3,-7.702721E-4,1.871407E-3,4.390838E-3,1.2117208E-3,4.739216E-5,2.0953272E-3],"split_indices":[2,1,1,13,3,20,8,0,0,1,6,6,0,8,0,8,0,0,3,8,0,13,8,0,0,0,0,0,0,0,0,0,0],"split_type":[0,0,0,0,0,0,0,0,0,0,0,0,0,0,0,0,0,0,0,0,0,0,0,0,0,0,0,0,0,0,0,0,0],"sum_hessian":[4.35E2,2.46E2,1.89E2,6.9E1,1.77E2,7.2E1,1.17E2,2.3E1,4.6E1,1.37E2,4E1,3.1E1,4.1E1,1.05E2,1.2E1,1.31E2,6E0,2.7E1,1.3E1,1.1E1,2E1,5.7E1,4.8E1,1.09E2,2.2E1,7E0,6E0,7E0,4E0,4.4E1,1.3E1,1.2E1,3.6E1],"tree_param":{"num_deleted":"0","num_feature":"23","num_nodes":"33","size_leaf_vector":"1"}},{"base_weights":[4.462666E-3,-2.0973925E-2,4.2364136E-3,-6.16814E-2,1.94232E-2,-2.9118408E-3,-4.071599E-2,-2.8352775E-2,1.1126595E-3,-6.748548E-4,-1.9018421E-3,-2.172934E-3,-2.4753422E-4,-8.7078445E-4,6.99585E-4],"categories":[],"categories_nodes":[],"categories_segments":[],"categories_sizes":[],"default_left":[0,0,0,0,0,0,0,0,0,0,0,0,0,0,0],"id":47,"left_children":[1,3,-1,5,7,-1,9,11,-1,-1,-1,-1,13,-1,-1],"loss_changes":[1.705686E0,6.496703E-1,0E0,1.3875371E-1,2.0771298E-1,0E0,5.174458E-2,9.149032E-2,0E0,0E0,0E0,0E0,4.6741717E-2,0E0,0E0],"parents":[2147483647,0,0,1,1,3,3,4,4,6,6,7,7,12,12],"right_children":[2,4,-1,6,8,-1,10,12,-1,-1,-1,-1,14,-1,-1],"split_conditions":[1.11E2,7.7E1,4.2364136E-3,5.6E1,6.161647E-1,-2.9118408E-3,2.83E-1,2.66E-1,1.1126595E-3,-6.748548E-4,-1.9018421E-3,-2.172934E-3,4.0578327E-1,-8.7078445E-4,6.99585E-4],"split_indices":[0,0,0,0,13,0,9,9,0,0,0,0,13,0,0],"split_type":[0,0,0,0,0,0,0,0,0,0,0,0,0,0,0],"sum_hessian":[4.38E2,3.8E2,5.8E1,1.87E2,1.93E2,5E1,1.37E2,5.7E1,1.36E2,9.6E1,4.1E1,1.5E1,4.2E1,1.8E1,2.4E1],"tree_param":{"num_deleted":"0","num_feature":"23","num_nodes":"15","size_leaf_vector":"1"}},{"base_weights":[8.147725E-5,-4.3061752E-2,6.0227662E-2,-2.037237E-2,-1.11144856E-1,3.1305034E-2,1.5441658E-1,-2.8089553E-3,-1.4636209E-3,-1.2459355E-1,4.1861628E-4,-1.6228454E-2,6.2577635E-2,4.592219E-3,1.5977444E-4,-1.0743161E-3,1.2345609E-2,-7.067892E-5,-3.8593789E-3,-1.8001269E-3,1.0558369E-3,2.199638E-3,-5.0832133E-4,1.5270389E-3,-1.9160432E-5,9.11391E-4,-6.07886E-4],"categories":[],"categories_nodes":[],"categories_segments":[],"categories_sizes":[],"default_left":[0,0,0,0,0,0,0,0,0,0,0,0,0,0,0,0,0,0,0,0,1,0,0,0,0,0,0],"id":48,"left_children":[1,3,5,7,9,11,13,15,-1,17,-1,19,21,-1,-1,-1,23,-1,-1,-1,25,-1,-1,-1,-1,-1,-1],"loss_changes":[1.1350245E0,3.7363508E-1,4.5548612E-1,1.1268134E-1,1.2109786E-1,2.3289661E-1,5.5056393E-2,7.98932E-2,0E0,9.36442E-2,0E0,5.6463245E-2,1.3554814E-1,0E0,0E0,0E0,5.8357134E-2,0E0,0E0,0E0,4.804648E-2,0E0,0E0,0E0,0E0,0E0,0E0],"parents":[2147483647,0,0,1,1,2,2,3,3,4,4,5,5,6,6,7,7,9,9,11,11,12,12,16,16,20,20],"right_children":[2,4,6,8,10,12,14,16,-1,18,-1,20,22,-1,-1,-1,24,-1,-1,-1,26,-1,-1,-1,-1,-1,-1],"split_conditions":[3E0,1E0,4E0,2.239E0,8E0,2E0,6.968E0,2E0,-1.4636209E-3,1.86E-1,4.1861628E-4,2E0,1E0,4.592219E-3,1.5977444E-4,-1.0743161E-3,1.07E-1,-7.067892E-5,-3.8593789E-3,-1.8001269E-3,3E0,2.199638E-3,-5.0832133E-4,1.5270389E-3,-1.9160432E-5,9.11391E-4,-6.07886E-4],"split_indices":[1,22,1,8,3,2,8,1,0,10,0,3,22,0,0,0,10,0,0,0,3,0,0,0,0,0,0],"split_type":[0,0,0,0,0,0,0,0,0,0,0,0,0,0,0,0,0,0,0,0,0,0,0,0,0,0,0],"sum_hessian":[4.2E2,2.46E2,1.74E2,1.93E2,5.3E1,1.42E2,3.2E1,1.31E2,6.2E1,4.8E1,5E0,5.8E1,8.4E1,2.9E1,3E0,3.5E1,9.6E1,6E0,4.2E1,9E0,4.9E1,7E1,1.4E1,1.6E1,8E1,1.9E1,3E1],"tree_param":{"num_deleted":"0","num_feature":"23","num_nodes":"27","size_leaf_vector":"1"}},{"base_weights":[1.235343E-3,-1.3224105E-2,4.0321467E-3,-7.927677E-2,1.9526831E-3,-2.422676E-3,-1.4881892E-5,-1.0067335E-3,1.6392097E-2,-3.6698475E-3,3.659951E-2,-5.8576337E-4,8.7571365E-4,1.264908E-3,-6.980491E-4],"categories":[],"categories_nodes":[],"categories_segments":[],"categories_sizes":[],"default_left":[0,0,0,0,0,0,0,0,0,0,0,0,0,0,0],"id":49,"left_children":[1,3,-1,5,7,-1,-1,-1,9,11,13,-1,-1,-1,-1],"loss_changes":[9.4607157E-1,4.1714042E-1,0E0,4.6740144E-2,1.9533953E-1,0E0,0E0,0E0,1.05264835E-1,8.910032E-2,7.993658E-2,0E0,0E0,0E0,0E0],"parents":[2147483647,0,0,1,1,3,3,4,4,8,8,9,9,10,10],"right_children":[2,4,-1,6,8,-1,-1,-1,10,12,14,-1,-1,-1,-1],"split_conditions":[4E0,2E0,4.0321467E-3,8.045265E-1,1E0,-2.422676E-3,-1.4881892E-5,-1.0067335E-3,3E0,7.0394206E-1,1.317E0,-5.8576337E-4,8.7571365E-4,1.264908E-3,-6.980491E-4],"split_indices":[1,1,0,13,5,0,0,0,1,13,9,0,0,0,0],"split_type":[0,0,0,0,0,0,0,0,0,0,0,0,0,0,0],"sum_hessian":[4.39E2,4.06E2,3.3E1,6.9E1,3.37E2,6.2E1,7E0,8.9E1,2.48E2,1.28E2,1.2E2,8.8E1,4E1,1.07E2,1.3E1],"tree_param":{"num_deleted":"0","num_feature":"23","num_nodes":"15","size_leaf_vector":"1"}},{"base_weights":[5.5055195E-3,-3.132096E-2,9.834755E-2,-2.893419E-3,-1.3571272E-2,4.6063222E-2,1.43749E-1,-2.7593765E-2,1.4130489E-2,1.7437811E-3,-9.792689E-4,2.9974096E-4,4.273798E-3,-4.7980365E-3,-1.1499608E-3,1.2809297E-3,-5.076414E-4,-4.6348636E-4,1.3111463E-3],"categories":[],"categories_nodes":[],"categories_segments":[],"categories_sizes":[],"default_left":[0,0,0,0,0,0,0,0,0,0,0,0,0,0,0,0,0,0,0],"id":50,"left_children":[1,3,5,-1,7,9,11,13,15,-1,-1,-1,-1,17,-1,-1,-1,-1,-1],"loss_changes":[1.5268081E0,4.007632E-1,2.4297488E-1,0E0,1.0739334E-1,1.1559492E-1,6.779587E-2,5.4667294E-2,1.0600406E-1,0E0,0E0,0E0,0E0,5.454142E-2,0E0,0E0,0E0,0E0,0E0],"parents":[2147483647,0,0,1,1,2,2,4,4,5,5,6,6,7,7,8,8,13,13],"right_children":[2,4,6,-1,8,10,12,14,16,-1,-1,-1,-1,18,-1,-1,-1,-1,-1],"split_conditions":[9.8E1,6E1,1.13E2,-2.893419E-3,8.1E1,1E0,2E0,1.37E-1,9E1,1.7437811E-3,-9.792689E-4,2.9974096E-4,4.273798E-3,1.22E-1,-1.1499608E-3,1.2809297E-3,-5.076414E-4,-4.6348636E-4,1.3111463E-3],"split_indices":[0,0,0,0,0,22,2,9,0,0,0,0,0,9,0,0,0,0,0],"split_type":[0,0,0,0,0,0,0,0,0,0,0,0,0,0,0,0,0,0,0],"sum_hessian":[4.3E2,3.12E2,1.18E2,5.3E1,2.59E2,6.3E1,5.5E1,1.72E2,8.7E1,5.4E1,9E0,5E0,5E1,6.9E1,1.03E2,4.2E1,4.5E1,6.1E1,8E0],"tree_param":{"num_deleted":"0","num_feature":"23","num_nodes":"19","size_leaf_vector":"1"}},{"base_weights":[-8.10246E-4,1.3559967E-2,-5.6061745E-2,1.791631E-2,-1.7163579E-3,5.6408986E-2,-8.740067E-2,9.9722834E-5,5.2759677E-2,2.3214223E-3,-1.920461E-4,-9.94474E-2,-1.6953344E-2,1.7946921E-3,-1.650481E-5,-1.6512902E-2,-3.1751317E-3,9.85003E-4,-1.2869763E-3,9.7494E-4,-1.7090973E-3],"categories":[],"categories_nodes":[],"categories_segments":[],"categories_sizes":[],"default_left":[0,0,0,0,0,0,0,0,0,0,0,0,0,0,0,0,0,0,0,0,0],"id":51,"left_children":[1,3,5,7,-1,9,11,-1,13,-1,-1,15,17,-1,-1,19,-1,-1,-1,-1,-1],"loss_changes":[3.605296E-1,1.2772302E-1,3.7320504E-1,1.719818E-1,0E0,4.8919193E-2,5.0320446E-2,0E0,6.316832E-2,0E0,0E0,6.0459673E-2,4.745993E-2,0E0,0E0,6.425554E-2,0E0,0E0,0E0,0E0,0E0],"parents":[2147483647,0,0,1,1,2,2,3,3,5,5,6,6,8,8,11,11,12,12,15,15],"right_children":[2,4,6,8,-1,10,12,-1,14,-1,-1,16,18,-1,-1,20,-1,-1,-1,-1,-1],"split_conditions":[1E0,1E0,1E0,1E0,-1.7163579E-3,4.471E0,1.3616E1,9.9722834E-5,1E0,2.3214223E-3,